tree
version=v4
num_class=1
num_tree_per_iteration=1
label_index=0
max_feature_idx=21
objective=regression
feature_names=High Low Open Volume Adj_Close SMA_10 SMA_50 EMA_10 EMA_50 MACD MACD_Signal RSI Lag_1 Lag_2 Lag_3 Lag_4 Lag_5 Volatility BB_MA BB_Std BB_Upper BB_Lower
feature_infos=[0.55723035335540771:0.63766157627105713] [0.54907041788101196:0.63477957248687744] [0.55152028799057007:0.63521909713745117] none [0.55184894800186157:0.63521909713745117] [0.56052973270416262:0.62920288443565364] [0.56519793033599852:0.61738262414932255] [0.5608118831046377:0.62878841068241287] [0.56943128271112209:0.61823564736882242] [-0.0074303362148085972:0.0073487647512904264] [-0.0069759484704552026:0.0060521870773417794] [6.5826518023927463:91.562352732215786] [0.55184894800186157:0.63521909713745117] [0.55184894800186157:0.63521909713745117] [0.55184894800186157:0.63521909713745117] [0.55184894800186157:0.63521909713745117] [0.55184894800186157:0.63521909713745117] [0.00059271234499547849:0.014436676589144479] [0.56189223825931545:0.62345343530178066] [0.0022122239377913924:0.016235489182931852] [0.56686306501366523:0.64106696562615395] [0.54704790625343425:0.61265537948646021]
tree_sizes=1135 1208 1214 1306 1303 1306 1308 1306 1320 1318 1225 1224 1225 1136 1316 1308 1225 1318 1227 1225 1314 1317 1322 1318 1314 1319 1407 1405 1409 1400 1408 1502 1411 1410 1412 1412 1321 1316 1320 1322 1417 1322 1499 1412 1420 1411 1412 1499 1507 1505 1417 1417 1326 1505 1328 1504 1505 1511 1504 1504 1508 1317 1419 1510 1504 1420 1334 1423 1512 1424 1334 1332 1428 1341 1428 1427 1513 1514 1422 1517 1328 1236 1420 1420 1330 1614 1524 1515 1427 1517 1615 1617 1520 1525 1523 1428 1535 1525 1442 1344 1434 1526 1441 1515 1531 1521 1424 1425 1435 1422 1524 1430 1435 1445 1423 1532 1526 1533 1527 1526 1334 1332 1516 1435 1532 1619 1528 1526 1517 1603 1516 1524 1439 1533 1526 1530 1430 1527 1611 1433 1526 1448 1441 1543 1540 1525 1529 1526 1433 1444 1444 1536 1449 1452 1626 1436 1441 1527 1448 1529 1622 1625 1446 1534 1633 1520 1530 1517 1527 1439 1351 1543 1343 1437 1441 1524 1433 1431 1526 1437 1437 1430 1536 1522 1439 1535 1522 1527 1530 1530 1613 1541 1518 1515 1526 1630 1621 1533 1529 1532

Tree=0
num_leaves=12
num_cat=0
split_feature=2 2 2 2 2 2 2 2 2 2 2
split_gain=0.0785673 0.0146212 0.00837484 0.0021102 0.00181513 0.00173918 0.000777641 0.000367 0.000291137 0.000254396 0.000249051
threshold=0.58879986405372631 0.60653480887413036 0.57167527079582225 0.61867594718933117 0.5802062749862672 0.59750542044639599 0.56495898962020885 0.59322017431259166 0.61222553253173839 0.57559421658515941 0.60156527161598217
decision_type=2 2 2 2 2 2 2 2 2 2 2
left_child=2 5 6 8 9 7 -1 -2 -3 -4 -7
right_child=1 3 4 -5 -6 10 -8 -9 -10 -11 -12
leaf_value=0.58860995036060793 0.59007798671994571 0.59101302038026948 0.58921788952255461 0.59175765757529042 0.58977335185781055 0.59051939993943992 0.58896880412339425 0.59032465389004929 0.59127329489888936 0.58942483800317669 0.59074145280755141
leaf_weight=36 25 21 27 21 38 28 26 38 22 33 23
leaf_count=36 25 21 27 21 38 28 26 38 22 33 23
internal_value=0.590019 0.590742 0.589215 0.591347 0.589503 0.590402 0.58876 0.590227 0.591146 0.589332 0.59062
internal_weight=338 178 160 64 98 114 62 63 43 60 51
internal_count=338 178 160 64 98 114 62 63 43 60 51
is_linear=0
shrinkage=1


Tree=1
num_leaves=12
num_cat=0
split_feature=2 2 2 2 2 4 2 4 2 2 4
split_gain=0.0709486 0.014081 0.00679601 0.00201966 0.00174206 0.0013456 0.0006019 0.000323099 0.000271584 0.000261913 0.000192812
threshold=0.58797597885131847 0.6062755584716798 0.57124415040016185 0.61677017807960521 0.59625494480133068 0.57917460799217235 0.56319001317024242 0.60007619857788097 0.59210142493247997 0.61183971166610729 0.57510429620742809
decision_type=2 2 2 2 2 2 2 2 2 2 2
left_child=2 4 6 9 8 10 -1 -6 -2 -3 -4
right_child=1 3 5 -5 7 -7 -8 -9 -10 -11 -12
leaf_value=-0.0014308106930305561 -5.3016271084305586e-06 0.00089434190608915834 -0.00080195363677505933 0.0016011201088195265 0.00038302457032841631 -0.00032425124970215718 -0.0011057094830487456 0.0006114256583775084 0.00021505951640549408 0.0011412080292674627 -0.0006180048968386034
leaf_weight=24 27 21 28 23 32 38 35 30 29 22 29
leaf_count=24 27 21 28 23 32 38 35 30 29 22 29
internal_value=-2.4648e-05 0.00063808 -0.000816478 0.00122293 0.000310959 -0.00055472 -0.00123795 0.000493541 0.000108814 0.00102065 -0.000708366
internal_weight=338 184 154 66 118 95 59 62 56 43 57
internal_count=338 184 154 66 118 95 59 62 56 43 57
is_linear=0
shrinkage=0.05


Tree=2
num_leaves=12
num_cat=0
split_feature=2 2 2 2 2 2 2 0 2 2 2
split_gain=0.0640337 0.0123077 0.00647128 0.00182583 0.00144341 0.00130531 0.000653104 0.00027655 0.000263207 0.000241407 0.000206651
threshold=0.58828029036521923 0.6062755584716798 0.57167527079582225 0.61867594718933117 0.59687596559524547 0.5802062749862672 0.5652352273464204 0.61319974064826976 0.60124519467353832 0.59282973408699047 0.5761547088623048
decision_type=2 2 2 2 2 2 2 2 2 2 2
left_child=2 4 6 7 9 10 -1 -3 -6 -2 -4
right_child=1 3 5 -5 8 -7 -8 -9 -10 -11 -12
leaf_value=-0.0012931000441312791 1.1851747806828756e-05 0.00084355210885405556 -0.00073137517756549641 0.0015467536059163866 0.00039031369478574824 -0.00026035684560026445 -0.00096228439733386036 0.0010929990746080876 0.00060529733891598889 0.00022000888750577969 -0.00054537622657205374
leaf_weight=37 26 20 32 21 35 35 25 25 24 30 28
leaf_count=37 26 20 32 21 35 35 25 25 24 30 28
internal_value=-2.34156e-05 0.000617538 -0.000762349 0.00116179 0.000305187 -0.000503021 -0.00115971 0.000982134 0.000477765 0.000123365 -0.000644576
internal_weight=338 181 157 66 115 95 62 45 59 56 60
internal_count=338 181 157 66 115 95 62 45 59 56 60
is_linear=0
shrinkage=0.05


Tree=3
num_leaves=13
num_cat=0
split_feature=4 2 4 2 2 2 2 2 4 2 4 2
split_gain=0.0578267 0.0115866 0.00545219 0.00174367 0.00136781 0.00116922 0.000393683 0.000258171 0.000251774 0.000212437 0.00017505 0.000167895
threshold=0.58755102753639232 0.60550466179847728 0.57021486759185802 0.61677017807960521 0.59594044089317333 0.57853463292121898 0.56261005997657787 0.61067023873329174 0.60007619857788097 0.59177023172378551 0.58267009258270275 0.5742802917957307
decision_type=2 2 2 2 2 2 2 2 2 2 2 2
left_child=2 4 6 7 9 11 -1 -3 -6 -2 -7 -4
right_child=1 3 5 -5 8 10 -8 -9 -10 -11 -12 -13
leaf_value=-0.0013215509802103043 -1.831437931105029e-05 0.00077663819305598739 -0.00075347541299249446 0.0014456992766455465 0.00034042439450893331 -0.00041740117483727988 -0.0010419842430993038 0.0010176537744700908 0.00054289070124338777 0.00017903490186048051 -0.00021071186725748703 -0.00058323457681884363
leaf_weight=20 25 20 28 23 34 21 34 25 28 30 20 30
leaf_count=20 25 20 28 23 34 21 34 25 28 30 20 30
internal_value=-2.22448e-05 0.000572507 -0.000741389 0.00109155 0.000270842 -0.00052095 -0.00114553 0.000910536 0.000431861 8.93307e-05 -0.000316577 -0.00066542
internal_weight=338 185 153 68 117 99 54 45 62 55 41 58
internal_count=338 185 153 68 117 99 54 45 62 55 41 58
is_linear=0
shrinkage=0.05


Tree=4
num_leaves=13
num_cat=0
split_feature=4 2 2 1 2 4 2 2 2 4 4 16
split_gain=0.0521987 0.00929191 0.00596066 0.00133354 0.00132873 0.00113408 0.000635198 0.000226346 0.000176837 0.000173158 0.000152604 4.32454e-06
threshold=0.58923527598381054 0.60738041996955883 0.57250490784645092 0.61597439646720897 0.58108451962471019 0.59835463762283336 0.56623056530952465 0.59393885731697094 0.61284086108207714 0.5767296850681306 0.60227900743484508 0.59447026252746593
decision_type=2 2 2 2 2 2 2 2 2 2 2 2
left_child=2 5 6 8 9 7 -1 -2 -3 -4 -7 -9
right_child=1 3 4 -5 -6 10 -8 11 -10 -11 -12 -13
leaf_value=-0.0011607861695572352 5.6938277382869281e-05 0.00081058167630717866 -0.00063886403051369341 0.0014092325791716575 -0.0001897008874668525 0.00041638914889727648 -0.0008417335589631247 0.000232282264623791 0.0010157744577598004 -0.00046745208987536337 0.00059760863937082746 0.0002651628712192178
leaf_weight=39 25 21 34 20 39 26 26 20 21 26 21 20
leaf_count=39 25 21 34 20 39 26 26 20 21 26 21 20
internal_value=-2.11326e-05 0.000582106 -0.000661154 0.0010732 -0.000416904 0.000310252 -0.00103317 0.000174959 0.000913178 -0.000564586 0.00049736 0.000248723
internal_weight=338 174 164 62 99 112 65 65 42 60 47 40
internal_count=338 174 164 62 99 112 65 65 42 60 47 40
is_linear=0
shrinkage=0.05


Tree=5
num_leaves=13
num_cat=0
split_feature=2 2 4 2 2 2 4 2 4 2 2 4
split_gain=0.0501957 0.00731205 0.00571684 0.001289 0.00122559 0.00100264 0.000946322 0.000188457 0.00017985 0.000171636 0.000147542 0.00014686
threshold=0.59001055359840404 0.60785099864006054 0.57400503754615795 0.59912890195846569 0.61867594718933117 0.58282071352005016 0.56751915812492382 0.56277471780776989 0.60309451818466198 0.61222553253173839 0.59462580084800731 0.5780509114265443
decision_type=2 2 2 2 2 2 2 2 2 2 2 2
left_child=2 3 6 10 9 11 7 -1 -5 -3 -2 -4
right_child=1 4 5 8 -6 -7 -8 -9 -10 -11 -12 -13
leaf_value=-0.0011698846658691764 9.5475521326685952e-05 0.00075969903365425448 -0.0005439766286009991 0.00042283877178474709 0.0013177936630589622 -0.00011215942477892068 -0.00071077980633292885 -0.00096892790004078828 0.00060216294569445075 0.00095504524440250612 0.00025307867767740834 -0.00038054280448704961
leaf_weight=20 27 23 27 27 21 33 35 28 29 22 33 28
leaf_count=20 27 23 27 27 21 33 35 28 29 22 33 28
internal_value=4.29958e-06 0.000582234 -0.000610812 0.000343179 0.00100239 -0.000330044 -0.000908494 -0.00105266 0.000515703 0.000855202 0.000182157 -0.000460774
internal_weight=353 182 171 116 66 88 83 48 56 45 60 55
internal_count=353 182 171 116 66 88 83 48 56 45 60 55
is_linear=0
shrinkage=0.05


Tree=6
num_leaves=13
num_cat=0
split_feature=4 4 4 4 4 4 4 4 4 4 4 4
split_gain=0.0453016 0.0066012 0.00516424 0.00118621 0.00107385 0.000989233 0.000746105 0.000184023 0.000147861 0.000142489 0.000130478 0.000126345
threshold=0.58984351158142101 0.6073305904865266 0.57347512245178234 0.61867594718933117 0.59877014160156261 0.58235016465187084 0.56685966253280651 0.6113497018814088 0.60309451818466198 0.56273540854454052 0.5767296850681306 0.59464523196220409
decision_type=2 2 2 2 2 2 2 2 2 2 2 2
left_child=2 4 6 7 11 10 9 -3 -6 -1 -4 -2
right_child=1 3 5 -5 8 -7 -8 -9 -10 -11 -12 -13
leaf_value=-0.0011013279880651018 9.0701746466947958e-05 0.00069928347619007466 -0.00055811707418234582 0.0012519040011933873 0.00039920319270874772 -0.00012575287113872333 -0.00070001623757621827 0.00089525508508086203 0.00056479080007053339 -0.00092333986059479087 -0.00039960170329055369 0.00023756691116432195
leaf_weight=22 27 23 21 21 28 37 34 25 26 23 34 32
leaf_count=22 27 23 21 21 28 37 34 25 26 23 34 32
internal_value=4.0846e-06 0.000553122 -0.000580271 0.000938477 0.000317817 -0.00032565 -0.000876792 0.000801352 0.000478931 -0.00101036 -0.000460126 0.000170357
internal_weight=353 182 171 69 113 92 79 48 54 45 55 59
internal_count=353 182 171 69 113 92 79 48 54 45 55 59
is_linear=0
shrinkage=0.05


Tree=7
num_leaves=13
num_cat=0
split_feature=2 2 2 2 2 2 2 2 2 2 2 2
split_gain=0.0408872 0.0061096 0.0044975 0.00107055 0.00102563 0.000873429 0.000628831 0.000167269 0.000144708 0.000140051 0.000119342 0.000118528
threshold=0.58944019675254833 0.60738041996955883 0.57327944040298473 0.61867594718933117 0.59808987379074108 0.582075595855713 0.5668596923351289 0.61183971166610729 0.60343122482299816 0.56277471780776989 0.59444019198417675 0.57692584395408641
decision_type=2 2 2 2 2 2 2 2 2 2 2 2
left_child=2 4 6 7 10 11 9 -3 -6 -1 -2 -4
right_child=1 3 5 -5 8 -7 -8 -9 -10 -11 -12 -13
leaf_value=-0.0010563240339979529 7.3532499394517533e-05 0.00067175797745585447 -0.00053141625636878118 0.0011893087998032571 0.00038008292540325783 -0.00013380319413389206 -0.000665496053895162 0.0008585957324375277 0.00054249920067377393 -0.00088033329767103383 0.00021626935049425813 -0.00038341179249748111
leaf_weight=20 27 25 24 21 32 37 31 23 24 26 32 31
leaf_count=20 27 25 24 21 32 37 31 23 24 26 32 31
internal_value=3.88037e-06 0.000519597 -0.000557609 0.000891553 0.000296423 -0.000321636 -0.000839552 0.000761284 0.00044969 -0.000956851 0.000150949 -0.000447996
internal_weight=353 184 169 69 115 92 77 48 56 46 59 55
internal_count=353 184 169 69 115 92 77 48 56 46 59 55
is_linear=0
shrinkage=0.05


Tree=8
num_leaves=13
num_cat=0
split_feature=4 4 2 2 2 2 2 2 2 2 4 1
split_gain=0.0369493 0.00650888 0.00322435 0.00138034 0.000770169 0.000714627 0.000207899 0.000172498 0.000118721 0.000105577 0.000104314 7.89758e-05
threshold=0.58755102753639232 0.60468086600303661 0.57038980722427379 0.61511966586112987 0.59625494480133068 0.57880082726478588 0.56319001317024242 0.60950523614883434 0.59210142493247997 0.57469451427459728 0.59992501139640819 0.58053132891654979
decision_type=2 2 2 2 2 2 2 2 2 2 2 2
left_child=2 4 6 7 8 9 -1 -3 -2 -4 -6 -7
right_child=1 3 5 -5 10 11 -8 -9 -10 -11 -12 -13
leaf_value=-0.00099032622883501271 -5.6674593652132899e-06 0.00056287449814619562 -0.00056819339036284127 0.0010662488832042134 0.00026338980533182623 -0.00030761278350837528 -0.00079450051892887466 0.00073750953440769368 0.00014077841619690581 -0.00043434808926227003 0.00040168033447116617 -0.00016709960182197394
leaf_weight=23 25 31 34 29 25 20 33 26 31 26 30 20
leaf_count=23 25 31 34 29 25 20 33 26 31 26 30 20
internal_value=3.68635e-06 0.000458899 -0.000571166 0.000785414 0.000205924 -0.000401059 -0.000874929 0.000642533 7.54008e-05 -0.000510194 0.000338821 -0.000237356
internal_weight=353 197 156 86 111 100 56 57 56 60 55 40
internal_count=353 197 156 86 111 100 56 57 56 60 55 40
is_linear=0
shrinkage=0.05


Tree=9
num_leaves=13
num_cat=0
split_feature=4 4 2 2 2 4 2 2 4 2 2 2
split_gain=0.0333467 0.00587426 0.00291623 0.00124582 0.000695799 0.000690162 0.000180824 0.000155508 0.000109776 0.000107712 9.49014e-05 8.31797e-05
threshold=0.58755102753639232 0.60468086600303661 0.56975030899047863 0.61608979105949413 0.59594044089317333 0.57835394144058239 0.60982489585876476 0.56277471780776989 0.59951499104499828 0.58247900009155285 0.59107425808906566 0.57469451427459728
decision_type=2 2 2 2 2 2 2 2 2 2 2 2
left_child=2 4 7 6 10 11 -3 -1 -6 -7 -2 -4
right_child=1 3 5 -5 8 9 -8 -9 -10 -11 -12 -13
leaf_value=-0.00095399152021855113 -2.1271223304211161e-05 0.00054234657984446083 -0.00054508337524492999 0.0010274581887103893 0.00023626428190618755 -0.00031241166061195345 0.00071948568522930143 -0.0007773015323574796 0.00037516697705017798 -0.00015578917560300656 0.00011675838878462938 -0.00042231328870085154
leaf_weight=20 20 34 37 27 25 23 25 33 33 21 33 22
leaf_count=20 20 34 37 27 25 23 25 33 33 21 33 22
internal_value=3.50203e-06 0.000435954 -0.000542608 0.000746143 0.000195628 -0.000387534 0.000617406 -0.000843977 0.000315295 -0.00023766 6.46717e-05 -0.000499305
internal_weight=353 197 156 86 111 103 59 53 58 44 53 59
internal_count=353 197 156 86 111 103 59 53 58 44 53 59
is_linear=0
shrinkage=0.05


Tree=10
num_leaves=12
num_cat=0
split_feature=4 2 2 2 2 4 4 2 4 4 2
split_gain=0.0278426 0.00480356 0.00354188 0.000904559 0.000767988 0.000736122 0.000547106 0.000146591 0.000102431 0.000101662 8.88997e-05
threshold=0.59063956141471874 0.60863348841667186 0.57375967502594005 0.61904954910278331 0.58406952023506176 0.59926351904869091 0.56808984279632579 0.56391403079032909 0.5780509114265443 0.60380586981773388 0.59507516026496898
decision_type=2 2 2 2 2 2 2 2 2 2 2
left_child=2 5 6 -3 8 10 7 -1 -4 -7 -2
right_child=1 3 4 -5 -6 9 -8 -9 -10 -11 -12
leaf_value=-0.00091148779638821177 8.9165512753393636e-05 0.00067623698054567773 -0.00041973341346508079 0.0010851331542999973 -6.7263333078920588e-05 0.00033654829300940037 -0.00053351105722997875 -0.00073059800391395884 -0.00029013189719989896 0.00047776235733181243 0.00020754515958417739
leaf_weight=21 29 38 31 21 37 25 28 24 30 26 35
leaf_count=21 29 38 31 21 37 25 28 24 30 26 35
internal_value=9.71556e-06 0.000455001 -0.000443382 0.000821776 -0.000246984 0.00026683 -0.00070704 -0.000815013 -0.000355995 0.00040854 0.000153904
internal_weight=345 174 171 59 98 115 73 45 61 51 64
internal_count=345 174 171 59 98 115 73 45 61 51 64
is_linear=0
shrinkage=0.05


Tree=11
num_leaves=12
num_cat=0
split_feature=2 4 2 2 2 4 2 2 4 2 4
split_gain=0.0251389 0.00525789 0.00236639 0.00120171 0.000582118 0.000579065 0.000166529 0.000138684 0.000105515 0.000101493 8.51551e-05
threshold=0.58797597885131847 0.60500457882881176 0.56975030899047863 0.61904954910278331 0.59687596559524547 0.57951027154922496 0.61067023873329174 0.56391403079032909 0.5753905475139619 0.59261366724967968 0.60129040479660045
decision_type=2 2 2 2 2 2 2 2 2 2 2
left_child=2 4 7 6 9 8 -3 -1 -4 -2 -6
right_child=1 3 5 -5 10 -7 -8 -9 -10 -11 -12
leaf_value=-0.0008659133554569312 1.688905077961473e-06 0.00050113643186965159 -0.00048317023136309887 0.0010308765185376009 0.00024815442562667707 -0.00018215775489807131 0.00067358161322772503 -0.00069161916337907316 -0.00035886818603161848 0.00012940496555529537 0.00037890427163802089
leaf_weight=21 28 28 38 21 33 37 28 25 31 35 20
leaf_count=21 28 28 38 21 33 37 28 25 31 35 20
internal_value=9.22979e-06 0.000388001 -0.00047171 0.000708318 0.000175376 -0.000341747 0.000587359 -0.000771188 -0.000427324 7.26423e-05 0.000297494
internal_weight=345 193 152 77 116 106 56 46 69 63 53
internal_count=345 193 152 77 116 106 56 46 69 63 53
is_linear=0
shrinkage=0.05


Tree=12
num_leaves=12
num_cat=0
split_feature=2 4 4 2 4 2 2 2 2 2 2
split_gain=0.022696 0.00484256 0.00206647 0.00108454 0.000551768 0.000441783 0.000154612 0.000150914 0.000108024 6.94771e-05 6.81328e-05
threshold=0.5867891013622285 0.60500457882881176 0.57070067524909984 0.61904954910278331 0.59544542431831371 0.57880082726478588 0.56391403079032909 0.60982489585876476 0.60060963034629833 0.59177023172378551 0.57510432600975048
decision_type=2 2 2 2 2 2 2 2 2 2 2
left_child=2 4 6 7 9 10 -1 -3 -6 -2 -4
right_child=1 3 5 -5 8 -7 -8 -9 -10 -11 -12
leaf_value=-0.00082261772338478349 -1.0413793909090321e-05 0.00046658982522785664 -0.00045642947185445921 0.00097933267243206497 0.00020984226268612677 -0.00019250752669997895 -0.00064314397417807164 0.00063170174347056498 0.00034359036944806579 0.00010125646949745715 -0.00035138140223791892
leaf_weight=21 26 25 33 21 36 39 28 31 26 30 29
leaf_count=21 26 25 33 21 36 39 28 31 26 30 29
internal_value=8.7683e-06 0.000364452 -0.00045362 0.000672902 0.000163175 -0.000324357 -0.000720061 0.000557991 0.00026593 4.94096e-05 -0.000407294
internal_weight=345 195 150 77 118 101 49 56 62 56 62
internal_count=345 195 150 77 118 101 49 56 62 56 62
is_linear=0
shrinkage=0.05


Tree=13
num_leaves=11
num_cat=0
split_feature=2 2 4 2 4 4 4 4 2 4
split_gain=0.0204879 0.00362212 0.00253406 0.000660533 0.000578888 0.000568866 0.000364596 7.44281e-05 7.40583e-05 7.35216e-05
threshold=0.59001055359840404 0.60863348841667186 0.57347512245178234 0.61904954910278331 0.58363658189773571 0.59926351904869091 0.56644064188003551 0.60309451818466198 0.59493887424469005 0.57748559117317211
decision_type=2 2 2 2 2 2 2 2 2 2
left_child=2 5 6 -3 9 8 -1 -7 -2 -4
right_child=1 3 4 -5 -6 7 -8 -9 -10 -11
leaf_value=-0.00071984580227811091 6.9888409537573659e-05 0.00058095072592167488 -0.0003735570493957092 0.00093036604867804615 -6.5562698138229607e-05 0.00028089558790353214 -0.00049078104784712202 0.00040285443919229095 0.00017625790011758607 -0.00026443380841308025
leaf_weight=38 30 38 29 21 37 22 32 29 36 33
leaf_count=38 30 38 29 21 37 22 32 29 36 33
internal_value=8.32988e-06 0.000385899 -0.000384878 0.000705319 -0.000222074 0.000224824 -0.00061513 0.000350245 0.000127908 -0.000315475
internal_weight=345 176 169 59 99 117 70 51 66 62
internal_count=345 176 169 59 99 117 70 51 66 62
is_linear=0
shrinkage=0.05


Tree=14
num_leaves=13
num_cat=0
split_feature=2 4 2 2 4 2 2 1 4 4 2 4
split_gain=0.0185109 0.00394919 0.0016947 0.000710432 0.000634574 0.000383851 0.000108999 0.000108188 8.20609e-05 7.87027e-05 7.22317e-05 1.54604e-05
threshold=0.5867891013622285 0.60652562975883495 0.56975030899047863 0.61904954910278331 0.59759545326232921 0.57963955402374279 0.59322017431259166 0.56146499514579784 0.60258027911186229 0.57567542791366588 0.61222553253173839 0.57304027676582348
decision_type=2 2 2 2 2 2 2 2 2 2 2 2
left_child=2 4 7 10 6 9 -2 -1 -6 11 -3 -4
right_child=1 3 5 -5 8 -7 -8 -9 -10 -11 -12 -13
leaf_value=-0.00074980270583182575 1.0235529735938245e-05 0.00046969447284936908 -0.0004418462864123285 0.00088384776997069516 0.00024308082910494942 -0.00016007093380561427 0.00013164538004754211 -0.00059512209218855097 0.00036623044773781053 -0.00030362831894308333 0.000596420231952586 -0.0003796762914862484
leaf_weight=20 36 23 20 21 31 34 38 26 24 30 22 20
leaf_count=20 36 23 20 21 31 34 38 26 24 30 22 20
internal_value=7.91339e-06 0.000329134 -0.000409673 0.000643712 0.000168186 -0.000297901 7.25811e-05 -0.000662375 0.000296819 -0.000364847 0.000531649 -0.000410761
internal_weight=345 195 150 66 129 104 74 46 55 70 45 40
internal_count=345 195 150 66 129 104 74 46 55 70 45 40
is_linear=0
shrinkage=0.05


Tree=15
num_leaves=13
num_cat=0
split_feature=2 2 4 1 2 4 4 4 2 4 2 2
split_gain=0.0178236 0.00278135 0.0020987 0.000460943 0.000450028 0.000436612 0.000346117 6.94441e-05 6.5693e-05 6.20565e-05 6.1345e-05 4.94216e-05
threshold=0.59064042568206798 0.60804504156112682 0.57440432906150829 0.61597439646720897 0.59912890195846569 0.58460915088653576 0.56808984279632579 0.56273540854454052 0.6131790578365327 0.60309451818466198 0.57880082726478588 0.59507516026496898
decision_type=2 2 2 2 2 2 2 2 2 2 2 2
left_child=2 4 6 8 11 10 7 -1 -3 -6 -4 -2
right_child=1 3 5 -5 9 -7 -8 -9 -10 -11 -12 -13
leaf_value=-0.0006862712669230644 6.815158053844546e-05 0.00047118545550367107 -0.00031175778439158903 0.00081905920058488845 0.0002554980184261998 -3.8849398083584678e-05 -0.00041201704980007247 -0.00056688230773755191 0.00059350117198413328 0.00036506523195255019 -0.00020973219249684075 0.00015890913472200432
leaf_weight=21 30 23 34 20 24 32 35 29 21 28 26 30
leaf_count=21 30 23 34 20 24 32 35 29 21 28 26 30
internal_value=7.92385e-07 0.000357088 -0.000353491 0.000620031 0.000206836 -0.000188 -0.00053261 -0.000617026 0.000529563 0.000314496 -0.000267547 0.00011353
internal_weight=353 176 177 64 112 92 85 50 44 52 60 60
internal_count=353 176 177 64 112 92 85 50 44 52 60 60
is_linear=0
shrinkage=0.05


Tree=16
num_leaves=12
num_cat=0
split_feature=4 2 4 2 4 4 4 2 4 2 2
split_gain=0.0160943 0.00322805 0.00127302 0.000645267 0.000344288 0.000242952 0.000107893 6.72525e-05 5.36328e-05 5.05979e-05 4.93001e-05
threshold=0.58662039041519176 0.60447981953620922 0.57113486528396618 0.61448088288307201 0.59544542431831371 0.57999601960182201 0.56430941820144664 0.60910430550575267 0.5760001838207246 0.60084959864616405 0.59107425808906566
decision_type=2 2 2 2 2 2 2 2 2 2 2
left_child=2 4 6 7 10 8 -1 -3 -4 -6 -2
right_child=1 3 5 -5 9 -7 -8 -9 -10 -11 -12
leaf_value=-0.00063045407356373195 -1.499363032053225e-05 0.00036438906636948772 -0.00035864246065581314 0.00070342484184286822 0.00017479947718763444 -0.00014632388564019368 -0.00049628207700387129 0.0004770552429060142 -0.00026744424415353152 0.00027408054586322534 7.8091591289690274e-05
leaf_weight=29 25 26 38 33 33 29 31 27 28 21 33
leaf_count=29 25 26 38 33 33 29 31 27 28 21 33
internal_value=7.52763e-07 0.000299464 -0.000380827 0.000529856 0.000122556 -0.00026695 -0.000561132 0.000421785 -0.000319952 0.000213409 3.79687e-05
internal_weight=353 198 155 86 112 95 60 53 66 54 58
internal_count=353 198 155 86 112 95 60 53 66 54 58
is_linear=0
shrinkage=0.05


Tree=17
num_leaves=13
num_cat=0
split_feature=2 2 2 1 4 2 2 4 2 2 4 2
split_gain=0.0145251 0.00297761 0.00110568 0.000598295 0.00032554 0.00023332 0.000135438 6.78209e-05 4.8516e-05 4.57791e-05 3.56969e-05 3.21006e-05
threshold=0.58629533648490917 0.60447981953620922 0.56975030899047863 0.61597439646720897 0.59544542431831371 0.57770073413848888 0.61067023873329174 0.56273540854454052 0.59107425808906566 0.60060963034629833 0.58205524086952221 0.5742802917957307
decision_type=2 2 2 2 2 2 2 2 2 2 2 2
left_child=2 4 7 6 8 11 -3 -1 -2 -6 -7 -4
right_child=1 3 5 -5 9 10 -8 -9 -10 -11 -12 -13
leaf_value=-0.00062043500753740475 -1.6188158716195851e-05 0.00036335724672036514 -0.00036805918362612527 0.00074293501209467651 0.00016456651428597979 -0.00022432051715441049 0.00050687232325153969 -0.00050479578785598276 7.418701301723944e-05 0.00025826100133020767 -0.00013098380240123895 -0.00029428695521221081
leaf_weight=21 27 35 30 20 32 20 31 32 33 22 21 29
leaf_count=21 27 35 30 20 32 20 31 32 33 22 21 29
internal_value=7.15127e-07 0.000281241 -0.000365985 0.000503363 0.000113675 -0.000268132 0.000430766 -0.000550615 3.35182e-05 0.000202738 -0.000176514 -0.000331798
internal_weight=353 200 153 86 114 100 66 53 60 54 41 59
internal_count=353 200 153 86 114 100 66 53 60 54 41 59
is_linear=0
shrinkage=0.05


Tree=18
num_leaves=12
num_cat=0
split_feature=4 2 4 0 2 4 2 2 2 4 2
split_gain=0.0131101 0.00263174 0.00104267 0.000519098 0.000309797 0.000172577 0.000120873 0.00010201 5.00001e-05 4.19598e-05 3.30165e-05
threshold=0.58662039041519176 0.60496616363525402 0.57208898663520824 0.62133997678756725 0.59687596559524547 0.57999601960182201 0.5652352273464204 0.61067023873329174 0.59210142493247997 0.60129040479660045 0.57649350166320812
decision_type=2 2 2 2 2 2 2 2 2 2 2
left_child=2 4 6 7 8 10 -1 -3 -2 -6 -4
right_child=1 3 5 -5 9 -7 -8 -9 -10 -11 -12
leaf_value=-0.00055607292128519886 -4.3985510860840167e-06 0.00034997687471332033 -0.00031178915474031651 0.00069970161254916878 0.00016877737737471058 -0.00013188879680016947 -0.00042018042566875619 0.00047831405575076737 8.4699817216460366e-05 0.00026031462032170523 -0.00023655634373426438
leaf_weight=36 31 32 35 21 31 29 30 30 32 21 25
leaf_count=36 31 32 35 21 31 29 30 30 32 21 25
internal_value=6.79372e-07 0.000270279 -0.000343712 0.000484848 0.000115415 -0.000232037 -0.000494304 0.000412076 4.08578e-05 0.000205744 -0.000280442
internal_weight=353 198 155 83 115 89 66 62 63 52 60
internal_count=353 198 155 83 115 89 66 62 63 52 60
is_linear=0
shrinkage=0.05


Tree=19
num_leaves=12
num_cat=0
split_feature=2 2 2 4 1 2 4 4 2 4 2
split_gain=0.0118377 0.00190203 0.00135583 0.000354125 0.000344466 0.000290278 0.000137459 6.02495e-05 5.1024e-05 4.01651e-05 3.32118e-05
threshold=0.59001055359840404 0.60785099864006054 0.5728098750114442 0.58384954929351818 0.61597439646720897 0.59808987379074108 0.56582531332969677 0.57731020450592052 0.6131790578365327 0.60258027911186229 0.59444019198417675
decision_type=2 2 2 2 2 2 2 2 2 2 2
left_child=2 5 6 7 8 10 -1 -4 -3 -7 -2
right_child=1 4 3 -5 -6 9 -8 -9 -10 -11 -12
leaf_value=-0.00052649971173220392 4.2585565727047375e-05 0.00037733844230667903 -0.00028624264934264565 -3.7983454205914313e-05 0.0006719101220369339 0.00019942025780134522 -0.00038723352584330473 -0.00019462447993359285 0.00048212600827571891 0.00028756808439668802 0.00011814671205215608
leaf_weight=37 26 26 34 32 20 24 34 38 21 28 33
leaf_count=37 26 26 34 32 20 24 34 38 21 28 33
internal_value=6.45402e-07 0.00028774 -0.000291371 -0.000176379 0.000498114 0.000160757 -0.000459809 -0.000237889 0.000424158 0.000246884 8.48486e-05
internal_weight=353 178 175 104 67 111 71 72 47 52 59
internal_count=353 178 175 104 67 111 71 72 47 52 59
is_linear=0
shrinkage=0.05


Tree=20
num_leaves=13
num_cat=0
split_feature=2 2 2 12 2 4 4 2 4 2 2 2
split_gain=0.0099683 0.00173732 0.00133138 0.000388597 0.000254968 0.000248128 0.000214321 4.05651e-05 3.45414e-05 2.96509e-05 1.68208e-05 1.06738e-05
threshold=0.59107425808906566 0.60910430550575267 0.57580140233039867 0.6196190118789674 0.56851959228515636 0.59951499104499828 0.58460915088653576 0.6041657328605653 0.56381070613861095 0.59594044089317333 0.5793004333972932 0.5730593502521516
decision_type=2 2 2 2 2 2 2 2 2 2 2 2
left_child=2 5 4 -3 8 9 10 -7 -1 -2 -4 -6
right_child=1 3 6 -5 11 7 -8 -9 -10 -11 -12 -13
leaf_value=-0.0005206261994317174 6.7450414302156248e-05 0.00041261814534664153 -0.0002224430949850516 0.00068889979971572765 -0.00032862729392945771 0.00020444210432469845 -2.9498352440800073e-05 0.00029451445676386355 -0.00043521316015514836 0.00014003728041037296 -0.00015908650530036539 -0.00027815782761370593
leaf_weight=20 34 35 22 20 20 25 39 25 29 24 20 22
leaf_count=20 34 35 22 20 20 25 39 25 29 24 20 22
internal_value=4.16751e-06 0.000284342 -0.000261347 0.000513084 -0.00039259 0.000167853 -0.0001139 0.000249478 -0.000470076 9.74864e-05 -0.000192273 -0.000302191
internal_weight=335 163 172 55 91 108 81 50 49 58 42 42
internal_count=335 163 172 55 91 108 81 50 49 58 42 42
is_linear=0
shrinkage=0.05


Tree=21
num_leaves=13
num_cat=0
split_feature=2 2 2 12 4 2 4 2 4 2 2 2
split_gain=0.00899753 0.00160373 0.00115887 0.000350709 0.000237459 0.000230109 0.000183086 4.85248e-05 3.11736e-05 2.16875e-05 1.51808e-05 9.63315e-06
threshold=0.59064042568206798 0.60910430550575267 0.57580140233039867 0.6196190118789674 0.59835463762283336 0.56851959228515636 0.58460915088653576 0.6041657328605653 0.56381070613861095 0.59393885731697094 0.5793004333972932 0.5730593502521516
decision_type=2 2 2 2 2 2 2 2 2 2 2 2
left_child=2 4 5 -3 9 8 10 -6 -1 -2 -4 -7
right_child=1 3 6 -5 7 11 -8 -9 -10 -11 -12 -13
leaf_value=-0.00049459488596767195 3.9487143039877994e-05 0.00039198724353419888 -0.00021132094076495956 0.0006544548075180501 0.00018681837573240046 -0.00031219593714922669 -3.0119100523045966e-05 0.00027978873346000909 -0.00041345250391369237 0.00010547152222980831 -0.00015113217930775137 -0.00026424992723729127
leaf_weight=20 20 35 22 20 32 20 37 25 29 33 20 22
leaf_count=20 20 35 22 20 32 20 37 25 29 33 20 22
internal_value=3.95914e-06 0.000266981 -0.000251327 0.00048743 0.000156756 -0.000372961 -0.000111217 0.000227595 -0.000446572 8.05718e-05 -0.00018266 -0.000287081
internal_weight=335 165 170 55 110 91 79 57 49 53 42 42
internal_count=335 165 170 55 110 91 79 57 49 53 42 42
is_linear=0
shrinkage=0.05


Tree=22
num_leaves=13
num_cat=0
split_feature=4 2 2 12 2 2 2 2 4 2 2 2
split_gain=0.00812108 0.00144719 0.00104643 0.000316515 0.000223761 0.000214237 0.000150113 4.23859e-05 2.81342e-05 2.06746e-05 1.25685e-05 1.03191e-05
threshold=0.59063956141471874 0.60910430550575267 0.57649350166320812 0.6196190118789674 0.56851959228515636 0.59868574142456066 0.58496978878974926 0.60343122482299816 0.56381070613861095 0.59444019198417675 0.57963955402374279 0.5730593502521516
decision_type=2 2 2 2 2 2 2 2 2 2 2 2
left_child=2 5 4 -3 8 9 10 -7 -1 -2 -4 -6
right_child=1 3 6 -5 11 7 -8 -9 -10 -11 -12 -13
leaf_value=-0.00046986514586023993 4.1960705129895362e-05 0.00037238787859678269 -0.00019550289900507778 0.00062173207290470598 -0.00029658613260835414 0.00017548541353758554 -2.6739929194263826e-05 0.00026254040378801248 -0.00039277987891872383 0.00010452710088312387 -0.00013944819686003031 -0.00024840099085122346
leaf_weight=20 23 35 20 20 20 29 36 27 29 31 20 25
leaf_count=20 23 35 20 20 20 29 36 27 29 31 20 25
internal_value=3.76118e-06 0.000253644 -0.000238773 0.000463058 -0.000350316 0.000148937 -0.000100811 0.000217458 -0.000424243 7.78785e-05 -0.000167476 -0.000269817
internal_weight=335 165 170 55 94 110 76 56 49 54 40 45
internal_count=335 165 170 55 94 110 76 56 49 54 40 45
is_linear=0
shrinkage=0.05


Tree=23
num_leaves=13
num_cat=0
split_feature=2 2 4 14 4 2 4 2 4 2 4 2
split_gain=0.00732985 0.0012814 0.000979958 0.000237257 0.000227539 0.000206806 0.00013861 3.7134e-05 2.53911e-05 2.26524e-05 1.41576e-05 9.82188e-06
threshold=0.59107425808906566 0.61067023873329174 0.5767296850681306 0.61950385570526134 0.60080990195274364 0.56851959228515636 0.58512037992477428 0.59625494480133068 0.56381070613861095 0.60550466179847728 0.57999601960182201 0.5730593502521516
decision_type=2 2 2 2 2 2 2 2 2 2 2 2
left_child=2 4 5 -3 7 8 10 -2 -1 -6 -4 -7
right_child=1 3 6 -5 9 11 -8 -9 -10 -11 -12 -13
leaf_value=-0.00044637188664637512 5.8979196344605754e-05 0.00036628746893256907 -0.00018307690320181706 0.00059014063561335216 0.00020115241852842951 -0.00028175682527944448 -1.9950965775529364e-05 0.00013300513073772892 -0.00037314088710037801 0.00027139310938461371 -0.00012429665133822712 -0.00023515054400866998
leaf_weight=20 36 29 21 20 22 20 36 32 29 24 20 26
leaf_count=20 36 29 21 20 22 20 36 32 29 24 20 26
internal_value=3.57312e-06 0.000243824 -0.000224107 0.000457656 0.000151914 -0.000331553 -9.15426e-05 9.38149e-05 -0.000403031 0.0002378 -0.000154404 -0.000255414
internal_weight=335 163 172 49 114 95 77 68 49 46 41 46
internal_count=335 163 172 49 114 95 77 68 49 46 41 46
is_linear=0
shrinkage=0.05


Tree=24
num_leaves=13
num_cat=0
split_feature=2 2 2 12 2 2 2 2 2 2 2 1
split_gain=0.00661768 0.0013184 0.00070692 0.000300671 0.000193358 0.000170483 6.7962e-05 3.34975e-05 2.93159e-05 2.35231e-05 2.1131e-05 2.07726e-05
threshold=0.58902528882026683 0.60804504156112682 0.5728098750114442 0.6196190118789674 0.59750542044639599 0.58365023136138927 0.56753045320510875 0.6020650863647462 0.57736054062843334 0.59382954239845287 0.6131790578365327 0.56146499514579784
decision_type=2 2 2 2 2 2 2 2 2 2 2 2
left_child=2 4 6 10 9 8 11 -6 -4 -2 -3 -1
right_child=1 3 5 -5 7 -7 -8 -9 -10 -11 -12 -13
leaf_value=-0.00042517503723502162 1.9524592106482227e-05 0.00029039647080935537 -0.00022118128347961655 0.00056417382904328406 0.00014314871306331562 -4.1710612519333762e-05 -0.00027830984576472211 0.00021982044824559629 -0.00015295750454242808 8.3246855647303169e-05 0.00036307897302322094 -0.00035739636693436365
leaf_weight=20 28 20 31 20 28 30 21 29 32 30 20 26
leaf_count=20 28 20 31 20 28 30 21 29 32 30 20 26
internal_value=3.39446e-06 0.000215886 -0.000229018 0.000405883 0.000116757 -0.000139813 -0.00035284 0.000182157 -0.000186528 5.24844e-05 0.000326738 -0.000386865
internal_weight=335 175 160 60 115 93 67 57 63 58 40 46
internal_count=335 175 160 60 115 93 67 57 63 58 40 46
is_linear=0
shrinkage=0.05


Tree=25
num_leaves=13
num_cat=0
split_feature=4 4 4 12 4 4 1 4 4 4 4 0
split_gain=0.00636122 0.00133732 0.000553254 0.000256391 0.000187539 9.31214e-05 7.29978e-05 4.04341e-05 3.14132e-05 2.01548e-05 9.76908e-06 8.01525e-06
threshold=0.58600845932960521 0.60561099648475658 0.56936910748481762 0.61867594718933117 0.59693652391433727 0.577610343694687 0.56082558631896984 0.6131790578365327 0.59248921275138866 0.60179516673088085 0.57367572188377391 0.58333018422126781
decision_type=2 2 2 2 2 2 2 2 2 2 2 2
left_child=2 4 6 7 8 10 -1 -3 -2 -6 -4 -7
right_child=1 3 5 -5 9 11 -8 -9 -10 -11 -12 -13
leaf_value=-0.00045443143185582902 -3.8570206995175866e-06 0.00025851812938021293 -0.00024425460939744007 0.00049875952769070872 0.00012667727459109192 -0.00014388517709448934 -0.00033445993758505214 0.00034455713837153531 6.3574342564078827e-05 0.000190287193399854 -0.00019991049472161608 -9.9121220118831842e-05
leaf_weight=21 39 36 27 20 33 20 32 22 31 20 23 20
leaf_count=21 39 36 27 20 33 20 32 22 31 20 23 20
internal_value=1.07515e-06 0.000182431 -0.000253837 0.000344386 7.97274e-05 -0.000178366 -0.000381996 0.000291154 2.60054e-05 0.000150681 -0.000223856 -0.000121503
internal_weight=344 201 143 78 123 90 53 58 70 53 50 40
internal_count=344 201 143 78 123 90 53 58 70 53 50 40
is_linear=0
shrinkage=0.05


Tree=26
num_leaves=14
num_cat=0
split_feature=2 2 2 1 4 4 2 2 4 4 4 4 4
split_gain=0.00574161 0.00121916 0.000490685 0.000218085 0.00017299 8.51162e-05 6.40401e-05 4.00484e-05 3.30132e-05 1.54683e-05 1.50475e-05 7.0328e-06 3.81245e-06
threshold=0.58576646447181713 0.60550466179847728 0.56851959228515636 0.61597439646720897 0.59709069132804882 0.5767296850681306 0.56319001317024242 0.6131790578365327 0.59279459714889537 0.60179516673088085 0.58169007301330578 0.57304027676582348 0.58923527598381054
decision_type=2 2 2 2 2 2 2 2 2 2 2 2 2
left_child=2 4 6 7 8 11 -1 -3 12 -6 -7 -4 -2
right_child=1 3 5 -5 9 10 -8 -9 -10 -11 -12 -13 -14
leaf_value=-0.00043652318068780008 -1.7892731275857107e-05 0.0002455922218763994 -0.00024134095403410144 0.00046954193501733246 0.00012400529987644405 -0.00015099391837239916 -0.00032176454626624626 0.00033121983711184425 6.4582381128275301e-05 0.00018077283515594901 -9.2453688072661555e-05 -0.00020243762410245838 1.2235777042709137e-05
leaf_weight=20 21 36 21 20 30 23 31 22 32 20 21 26 21
leaf_count=20 21 36 21 20 30 23 31 22 32 20 21 26 21
internal_value=1.0214e-06 0.000172289 -0.000242613 0.000327167 7.48666e-05 -0.000173032 -0.000366768 0.000278072 2.63222e-05 0.000146712 -0.000123054 -0.00021982 -2.82848e-06
internal_weight=344 202 142 78 124 91 51 58 74 50 44 47 42
internal_count=344 202 142 78 124 91 51 58 74 50 44 47 42
is_linear=0
shrinkage=0.05


Tree=27
num_leaves=14
num_cat=0
split_feature=4 2 4 2 12 2 2 2 2 2 4 2 12
split_gain=0.00518287 0.00103976 0.00049498 0.000182828 0.00017652 9.72184e-05 6.27828e-05 2.67248e-05 1.9551e-05 1.79765e-05 1.7484e-05 8.14895e-06 1.05583e-06
threshold=0.58662039041519176 0.60738041996955883 0.56936910748481762 0.59716999530792247 0.61867594718933117 0.57770073413848888 0.56319001317024242 0.59364444017410289 0.6020650863647462 0.6131790578365327 0.58205524086952221 0.57375967502594005 0.58966436982154857
decision_type=2 2 2 2 2 2 2 2 2 2 2 2 2
left_child=2 3 6 7 9 11 -1 12 -5 -3 -7 -4 -2
right_child=1 4 5 8 -6 10 -8 -9 -10 -11 -12 -13 -14
leaf_value=-0.00041469702497124675 -2.9913151138316607e-06 0.00024747116616568888 -0.0002199520539891507 0.00012257062917342409 0.00045241929357871415 -0.00013407651512395769 -0.00030242897795908382 6.6982867335149601e-05 0.000181145915873991 0.00030888207891786645 -7.1605124927979585e-05 -0.00017928755524652926 1.3255463837822391e-05
leaf_weight=20 20 26 28 28 20 21 33 31 29 22 24 22 20
leaf_count=20 20 26 28 28 20 21 33 31 29 22 24 22 20
internal_value=9.70327e-07 0.000169617 -0.000222373 8.56794e-05 0.000327618 -0.000154075 -0.000344794 3.21374e-05 0.000152372 0.000275618 -0.000100758 -0.00020206 5.13207e-06
internal_weight=344 196 148 128 68 95 53 71 57 48 45 50 40
internal_count=344 196 148 128 68 95 53 71 57 48 45 50 40
is_linear=0
shrinkage=0.05


Tree=28
num_leaves=14
num_cat=0
split_feature=2 2 2 12 2 4 1 4 2 2 4 4 2
split_gain=0.00468028 0.000994125 0.00039975 0.000184098 0.000153264 6.90764e-05 5.26922e-05 2.87998e-05 2.5511e-05 1.31296e-05 1.20768e-05 5.76936e-06 3.14761e-06
threshold=0.58576646447181713 0.60595411062240612 0.56851959228515636 0.61867594718933117 0.59712365269660961 0.5767296850681306 0.56082558631896984 0.59279459714889537 0.6113497018814088 0.6020650863647462 0.58169007301330578 0.57304027676582348 0.58944019675254833
decision_type=2 2 2 2 2 2 2 2 2 2 2 2 2
left_child=2 4 6 8 7 11 -1 12 -3 -6 -7 -4 -2
right_child=1 3 5 -5 9 10 -8 -9 -10 -11 -12 -13 -14
leaf_value=-0.00039185154185231245 -1.5427055884422523e-05 0.00021094745765863496 -0.00021788355606120258 0.00042979832272976637 0.00011526752154920892 -0.00013624897034352889 -0.00028858539803574483 5.9526240254533213e-05 0.00028045736535480529 0.00016649118942123925 -8.3804524148858742e-05 -0.0001826475566933648 1.1979756654909581e-05
leaf_weight=21 22 22 21 20 29 23 30 34 33 22 21 26 20
leaf_count=21 22 22 21 20 29 23 30 34 33 22 21 26 20
internal_value=9.21811e-07 0.000155552 -0.000219045 0.000299892 7.03123e-05 -0.000156242 -0.000331107 2.5317e-05 0.000252653 0.000137364 -0.000111219 -0.000198391 -2.37619e-06
internal_weight=344 202 142 75 127 91 51 76 55 51 44 47 42
internal_count=344 202 142 75 127 91 51 76 55 51 44 47 42
is_linear=0
shrinkage=0.05


Tree=29
num_leaves=14
num_cat=0
split_feature=4 4 4 4 12 4 1 4 4 4 4 4 4
split_gain=0.00422333 0.000889951 0.000367019 0.000163412 0.000143497 6.18226e-05 5.18467e-05 2.60828e-05 1.58438e-05 1.51278e-05 1.22526e-05 4.22824e-06 2.63917e-06
threshold=0.58600845932960521 0.6073305904865266 0.56936910748481762 0.59725561738014232 0.61867594718933117 0.5767296850681306 0.56082558631896984 0.59279459714889537 0.60258027911186229 0.6131790578365327 0.58169007301330578 0.57320550084114086 0.58923527598381054
decision_type=2 2 2 2 2 2 2 2 2 2 2 2 2
left_child=2 3 6 7 9 11 -1 12 -5 -3 -7 -4 -2
right_child=1 4 5 8 -6 10 -8 -9 -10 -11 -12 -13 -14
leaf_value=-0.00037225896847389991 -1.46418489498501e-05 0.00022307983286177312 -0.00020247126283886083 0.00011411400373617653 0.00040830840938724575 -0.00012943652210473691 -0.00027115134507766926 5.7123244789961191e-05 0.00016723816562443973 0.00027941510568118909 -7.7243144518103111e-05 -0.00017181063860492862 1.0736944078157e-05
leaf_weight=21 20 26 22 32 20 23 32 35 25 22 22 23 21
leaf_count=21 20 26 22 32 20 23 32 35 25 22 22 23 21
internal_value=8.7572e-07 0.000148646 -0.00020683 7.34177e-05 0.000295785 -0.00014536 -0.000311213 2.54204e-05 0.000137414 0.0002489 -0.00010392 -0.0001868 -1.64295e-06
internal_weight=344 201 143 133 68 90 53 76 57 48 45 45 41
internal_count=344 201 143 133 68 90 53 76 57 48 45 45 41
is_linear=0
shrinkage=0.05


Tree=30
num_leaves=14
num_cat=0
split_feature=2 4 2 2 4 4 4 4 2 2 4 4 2
split_gain=0.00412862 0.000881331 0.000358302 0.000219516 0.00012117 7.29028e-05 5.3735e-05 2.36671e-05 1.65109e-05 1.37135e-05 1.09559e-05 5.34019e-06 2.27071e-06
threshold=0.58629533648490917 0.60652562975883495 0.56851959228515636 0.61904954910278331 0.59759545326232921 0.56250467896461498 0.5767296850681306 0.59356513619422924 0.61284086108207714 0.58180975914001476 0.60258027911186229 0.57304027676582348 0.59001055359840404
decision_type=2 2 2 2 2 2 2 2 2 2 2 2 2
left_child=2 4 5 8 7 -1 11 12 -3 -8 -6 -4 -2
right_child=1 3 6 -5 10 -7 9 -9 -10 -11 -12 -13 -14
leaf_value=-0.00037745175301097335 -7.3075486408838299e-06 0.00020515467643875769 -0.00019838699372485281 0.00042718373122625059 0.00011029843260378888 -0.00025778477678873706 -0.00012642537143879703 5.8777490018033667e-05 0.00026154508721083406 -7.221646024845541e-05 0.00015807368268724531 -0.00016455911307795241 1.5944244175140436e-05
leaf_weight=20 21 27 20 20 30 35 28 38 25 20 20 28 21
leaf_count=20 21 27 20 20 30 35 28 38 25 20 20 28 21
internal_value=-1.7686e-06 0.000146073 -0.000199544 0.000286409 6.83488e-05 -0.0003013 -0.000141246 3.01864e-05 0.000232265 -0.000103838 0.000129409 -0.000178654 4.31835e-06
internal_weight=353 202 151 72 130 55 96 80 52 48 50 48 42
internal_count=353 202 151 72 130 55 96 80 52 48 50 48 42
is_linear=0
shrinkage=0.05


Tree=31
num_leaves=15
num_cat=0
split_feature=2 4 4 14 4 4 2 4 2 2 4 2 2 4
split_gain=0.00372608 0.000795401 0.000323424 0.000200714 0.000109463 6.76001e-05 4.68916e-05 2.2793e-05 1.43932e-05 1.1938e-05 8.75817e-06 4.58719e-06 2.04932e-06 1.62155e-06
threshold=0.58629533648490917 0.60652562975883495 0.56936910748481762 0.61950385570526134 0.59788051247596752 0.56250467896461498 0.57692584395408641 0.59356513619422924 0.61183971166610729 0.58180975914001476 0.60258027911186229 0.57375967502594005 0.59001055359840404 0.59544542431831371
decision_type=2 2 2 2 2 2 2 2 2 2 2 2 2 2
left_child=2 4 5 8 7 -1 11 12 -3 -8 -6 -4 -2 -9
right_child=1 3 6 -5 10 -7 9 13 -10 -11 -12 -13 -14 -15
leaf_value=-0.00035857916926033799 -6.9421712740200924e-06 0.00018835476255931317 -0.00018120824533980341 0.00040669957990758121 0.00010684851523754853 -0.00024392988481041459 -0.0001195725657183815 4.6773250942351298e-05 0.00024196652380088646 -6.8605638080043716e-05 0.00015016999852377922 -0.00014985588786657901 1.5147031774090248e-05 6.6907465952681375e-05
leaf_weight=20 21 21 28 20 28 36 27 20 31 20 20 20 21 20
leaf_count=20 21 21 28 20 28 36 27 20 31 20 20 20 21 20
internal_value=-1.68017e-06 0.00013877 -0.000189567 0.000272089 6.49313e-05 -0.000284876 -0.000133384 2.98282e-05 0.000220316 -9.78845e-05 0.000124899 -0.000168145 4.10243e-06 5.68404e-05
internal_weight=353 202 151 72 130 56 95 82 52 47 48 48 42 40
internal_count=353 202 151 72 130 56 95 82 52 47 48 48 42 40
is_linear=0
shrinkage=0.05


Tree=32
num_leaves=14
num_cat=0
split_feature=2 4 2 2 4 4 2 4 2 4 2 4 2
split_gain=0.00336289 0.000738177 0.000275633 0.000186877 0.000104444 5.93267e-05 3.7467e-05 2.14981e-05 1.32388e-05 9.02221e-06 7.23277e-06 3.04887e-06 2.65185e-06
threshold=0.58545109629631054 0.60652562975883495 0.56851959228515636 0.61904954910278331 0.59759545326232921 0.56250467896461498 0.57580140233039867 0.59356513619422924 0.61387073993682872 0.60227900743484508 0.5802062749862672 0.57304027676582348 0.58975651860237133
decision_type=2 2 2 2 2 2 2 2 2 2 2 2 2
left_child=2 4 5 8 7 -1 11 12 -3 -6 -8 -4 -2
right_child=1 3 6 -5 9 -7 10 -9 -10 -11 -12 -13 -14
leaf_value=-0.00034065020270645623 -1.1027986368260047e-05 0.00018858266957977321 -0.00017925043066497893 0.00038837238156702375 9.7206092215384597e-05 -0.00023269904378269403 -0.0001168473728466779 5.3023090846468935e-05 0.00024043952638749035 0.00013982139720136058 -7.8029492869973195e-05 -0.00015255761099979283 1.3301623259091381e-05
leaf_weight=20 21 32 20 20 27 35 30 38 20 23 20 23 24
leaf_count=20 21 32 20 20 27 35 30 38 20 23 20 23 24
internal_value=-1.59617e-06 0.000129531 -0.000183225 0.000258484 5.97217e-05 -0.000271954 -0.000130751 2.53317e-05 0.000208528 0.000116809 -0.00010132 -0.000164973 1.94781e-06
internal_weight=353 205 148 72 133 55 93 83 52 50 50 43 45
internal_count=353 205 148 72 133 55 93 83 52 50 50 43 45
is_linear=0
shrinkage=0.05


Tree=33
num_leaves=14
num_cat=0
split_feature=2 2 2 14 2 2 2 2 2 2 2 2 2
split_gain=0.00303542 0.000648099 0.000263475 0.000165497 9.48387e-05 4.84761e-05 3.96141e-05 1.79138e-05 9.80545e-06 9.7969e-06 8.48274e-06 4.06935e-06 2.62244e-06
threshold=0.58629533648490917 0.60738041996955883 0.56851959228515636 0.61950385570526134 0.59784477949142467 0.56277471780776989 0.57692584395408641 0.59382954239845287 0.58180975914001476 0.61284086108207714 0.60156527161598217 0.57357373833656322 0.59064042568206798
decision_type=2 2 2 2 2 2 2 2 2 2 2 2 2
left_child=2 4 5 9 7 -1 11 12 -8 -3 -6 -4 -2
right_child=1 3 6 -5 10 -7 8 -9 -10 -11 -12 -13 -14
leaf_value=-0.00031808490997978618 -6.3038983725505209e-06 0.00017657585558481515 -0.0001655696830884726 0.00036979408410843463 9.0942917513134693e-05 -0.00022146511302493954 -0.0001079672231787333 5.2043181180173691e-05 -6.1776392758474696e-05 0.00022087619738438383 0.00013192370824981482 -0.00013660043795508419 1.821092730097007e-05
leaf_weight=21 24 24 27 20 23 34 27 37 20 26 28 22 20
leaf_count=21 24 24 27 20 23 34 27 37 20 26 28 22 20
internal_value=-1.51636e-06 0.00012525 -0.000171098 0.000248235 6.00309e-05 -0.000258356 -0.000121107 2.64015e-05 -8.83116e-05 0.000199612 0.000113442 -0.000152563 4.8392e-06
internal_weight=353 202 151 70 132 55 96 81 47 50 51 49 44
internal_count=353 202 151 70 132 55 96 81 47 50 51 49 44
is_linear=0
shrinkage=0.05


Tree=34
num_leaves=14
num_cat=0
split_feature=2 4 2 2 4 1 4 4 2 4 0 4 1
split_gain=0.00274035 0.000601257 0.000224295 0.000158871 8.49962e-05 5.0004e-05 3.06263e-05 1.86047e-05 1.03849e-05 6.61264e-06 6.07635e-06 3.05794e-06 2.50257e-06
threshold=0.58545109629631054 0.60652562975883495 0.56851959228515636 0.61904954910278331 0.59788051247596752 0.55970421433448803 0.57567542791366588 0.59375020861625682 0.61387073993682872 0.60258027911186229 0.58191639184951793 0.59063956141471874 0.57103979587554943
decision_type=2 2 2 2 2 2 2 2 2 2 2 2 2
left_child=2 4 5 8 7 -1 12 11 -3 -6 -8 -2 -4
right_child=1 3 6 -5 9 -7 10 -9 -10 -11 -12 -13 -14
leaf_value=-0.00030850664305035028 -8.2579590035983051e-06 0.00016958359738055153 -0.00016248130472376946 0.00035307013138663029 9.1431262470515712e-05 -0.00020939955055447563 -0.00010705603957015637 5.0532132799334419e-05 0.00021551226440351458 0.00012907424301374706 -7.2208992258476255e-05 1.7070408640310318e-05 -0.00013804355456324463
leaf_weight=20 26 32 20 20 28 35 29 37 20 20 22 22 22
leaf_count=20 26 32 20 20 28 35 29 37 20 20 22 22 22
internal_value=-1.44054e-06 0.000116929 -0.000165398 0.00023331 5.39255e-05 -0.000245438 -0.000118062 2.38886e-05 0.000187248 0.000107116 -9.2024e-05 3.35088e-06 -0.000149681
internal_weight=353 205 148 72 133 55 93 85 52 48 51 48 42
internal_count=353 205 148 72 133 55 93 85 52 48 51 48 42
is_linear=0
shrinkage=0.05


Tree=35
num_leaves=14
num_cat=0
split_feature=2 4 4 0 2 2 1 0 2 4 2 4 2
split_gain=0.00231812 0.000489395 0.000164117 0.000131367 6.21999e-05 2.46813e-05 1.86482e-05 1.36868e-05 1.13582e-05 7.95411e-06 4.53385e-06 4.41201e-06 2.87229e-06
threshold=0.58576646447181713 0.60500457882881176 0.57113486528396618 0.62133997678756725 0.59687596559524547 0.57770073413848888 0.56082558631896984 0.61236989498138439 0.59261366724967968 0.60080990195274364 0.56623056530952465 0.58169007301330578 0.57442051172256481
decision_type=2 2 2 2 2 2 2 2 2 2 2 2 2
left_child=2 4 6 7 8 12 -1 -3 -2 -6 -8 -7 -4
right_child=1 3 5 -5 9 11 10 -9 -10 -11 -12 -13 -14
leaf_value=-0.00024968108129022376 -2.7605081488348204e-06 0.0001427589251694304 -0.00013976903175245281 0.00031700090505182744 7.054604544875122e-05 -9.2408428899943827e-05 -0.00020832911774050446 0.00019044202156638838 3.7240270426587416e-05 0.00010804641776933122 -0.00017466219607740642 -5.919693248870317e-05 -0.00011511354463263637
leaf_weight=21 35 27 27 20 31 20 20 34 36 26 20 20 21
leaf_count=21 35 27 27 20 31 20 20 34 36 26 20 20 21
internal_value=2.18804e-06 0.000109616 -0.000148499 0.000205797 4.87513e-05 -0.00010481 -0.000211527 0.000169336 1.75216e-05 8.76515e-05 -0.000191496 -7.58027e-05 -0.000128982
internal_weight=358 209 149 81 128 88 61 61 71 57 40 40 48
internal_count=358 209 149 81 128 88 61 61 71 57 40 40 48
is_linear=0
shrinkage=0.05


Tree=36
num_leaves=13
num_cat=0
split_feature=2 4 4 12 4 2 2 1 2 2 2 4
split_gain=0.00209281 0.000455787 0.000137864 0.000131803 4.82542e-05 1.78586e-05 1.68614e-05 1.683e-05 7.71874e-06 6.41159e-06 4.09179e-06 2.19365e-06
threshold=0.58545109629631054 0.60380586981773388 0.57113486528396618 0.61867594718933117 0.59519556164741527 0.57751059532165538 0.60950523614883434 0.56082558631896984 0.59868574142456066 0.59107425808906566 0.56623056530952465 0.57440432906150829
decision_type=2 2 2 2 2 2 2 2 2 2 2 2
left_child=2 4 7 6 9 11 -3 -1 -6 -2 -9 -4
right_child=1 3 5 -5 8 -7 -8 10 -10 -11 -12 -13
leaf_value=-0.00023719702869476309 -8.3962390802601777e-06 0.00012846443456627669 -0.00013311553898697289 0.00030160665279254316 5.2246182458475236e-05 -7.7546056873427753e-05 0.00017815445194413004 -0.00019791265716776255 8.7288752812045539e-05 2.4293171130314783e-05 -0.00016592908767051995 -0.00011108978535048665
leaf_weight=21 30 31 26 20 30 39 38 20 33 30 20 20
leaf_count=21 30 31 26 20 30 39 38 20 33 30 20 20
internal_value=2.07864e-06 0.000102402 -0.000143596 0.000188589 4.00392e-05 -0.000102436 0.00015583 -0.00020095 7.06018e-05 7.94847e-06 -0.000181921 -0.000123539
internal_weight=358 212 146 89 123 85 69 61 63 60 40 46
internal_count=358 212 146 89 123 85 69 61 63 60 40 46
is_linear=0
shrinkage=0.05


Tree=37
num_leaves=13
num_cat=0
split_feature=1 2 4 12 4 2 2 4 4 4 2 2
split_gain=0.00188889 0.000369333 0.000163589 7.76756e-05 7.00492e-05 3.13926e-05 1.97012e-05 1.08525e-05 7.99162e-06 4.63834e-06 2.83739e-06 9.49583e-07
threshold=0.58534476161003124 0.60863348841667186 0.57208898663520824 0.61867594718933117 0.59835463762283336 0.58108451962471019 0.56592455506324779 0.59375020861625682 0.60380586981773388 0.57567542791366588 0.6131790578365327 0.59594044089317333
decision_type=2 2 2 2 2 2 2 2 2 2 2 2
left_child=2 4 6 10 7 9 -1 -2 -6 -4 -3 -9
right_child=1 3 5 -5 8 -7 -8 11 -10 -11 -12 -13
leaf_value=-0.00020950803957067623 6.2434123206652927e-06 0.00015380999040124672 -0.00011906902835672271 0.00028652632026933135 8.2408706828787491e-05 -4.2730455606943e-05 -0.000154535860721288 3.6773484581234787e-05 0.00011884474316266952 -9.1249685389019797e-05 0.00017980168922804296 5.1826889830408618e-05
leaf_weight=39 35 21 29 20 34 31 28 22 27 31 21 20
leaf_count=39 35 21 29 20 34 31 28 22 27 31 21 20
internal_value=1.97471e-06 0.000104056 -0.000127242 0.000205425 5.85129e-05 -8.35867e-05 -0.000186535 2.68062e-05 9.85361e-05 -0.000104696 0.000166806 4.39418e-05
internal_weight=358 200 158 62 138 91 67 77 61 60 42 42
internal_count=358 200 158 62 138 91 67 77 61 60 42 42
is_linear=0
shrinkage=0.05


Tree=38
num_leaves=13
num_cat=0
split_feature=2 4 0 2 4 4 1 2 2 2 4 0
split_gain=0.0017075 0.000370509 0.000112512 0.000112194 3.90538e-05 1.54093e-05 1.3406e-05 1.3068e-05 6.38105e-06 5.19109e-06 2.46987e-06 1.74239e-06
threshold=0.58545109629631054 0.60380586981773388 0.62133997678756725 0.57062482833862316 0.59519556164741527 0.57748559117317211 0.56082558631896984 0.60982489585876476 0.59950602054595958 0.59107425808906566 0.58089450001716625 0.57562902569770824
decision_type=2 2 2 2 2 2 2 2 2 2 2 2
left_child=3 4 7 6 9 11 -1 -3 -6 -2 -7 -5
right_child=1 2 -4 5 8 10 -8 -9 -10 -11 -12 -13
leaf_value=-0.00021499266149476172 -7.3091203573009509e-06 0.00011653680230665487 0.00027462142170406881 -0.00012244916579220443 4.9529859513443498e-05 -8.322695066453889e-05 -0.00016521396985473601 0.00016017066711257843 8.1553704720655729e-05 2.2104856907390061e-05 -5.8378074027132246e-05 -0.00010319069134192947
leaf_weight=21 30 32 20 24 35 20 38 37 28 30 20 23
leaf_count=21 30 32 20 24 35 20 38 37 28 30 20 23
internal_value=1.87597e-06 9.24945e-05 0.000170201 -0.000129707 3.62676e-05 -9.36123e-05 -0.000182932 0.000139935 6.37627e-05 7.39787e-06 -7.08025e-05 -0.000113025
internal_weight=358 212 89 146 123 87 59 69 63 60 40 47
internal_count=358 212 89 146 123 87 59 69 63 60 40 47
is_linear=0
shrinkage=0.05


Tree=39
num_leaves=13
num_cat=0
split_feature=2 2 2 0 4 4 2 4 1 4 4 4
split_gain=0.00154102 0.000334807 0.000101817 8.59334e-05 5.01431e-05 1.82901e-05 8.68331e-06 8.63415e-06 7.4106e-06 6.74687e-06 3.56697e-06 1.77536e-06
threshold=0.58545109629631054 0.60595411062240612 0.56851959228515636 0.62133997678756725 0.59693652391433727 0.57567542791366588 0.59261366724967968 0.56273540854454052 0.61110499501228344 0.60080990195274364 0.58089450001716625 0.57273113727569591
decision_type=2 2 2 2 2 2 2 2 2 2 2 2
left_child=2 4 7 8 6 11 -2 -1 -3 -6 -7 -4
right_child=1 3 5 -5 9 10 -8 -9 -10 -11 -12 -13
leaf_value=-0.00020582247409038244 -3.2700803989140892e-06 0.00012551997240413639 -0.00012685763475019484 0.00026089035382028671 5.7659060888302821e-05 -8.2719361914011338e-05 3.0759039411252061e-05 -0.00016368494496770924 0.00016276256170716477 9.092077211056265e-05 -5.5459169816458596e-05 -0.00010687125287950041
leaf_weight=20 38 34 20 20 30 30 37 31 22 31 20 25
leaf_count=20 38 34 20 20 30 30 37 31 22 31 20 25
internal_value=1.78217e-06 8.78698e-05 -0.000123222 0.000171925 4.08981e-05 -9.26284e-05 1.35176e-05 -0.000180209 0.000140151 7.45626e-05 -7.18153e-05 -0.000115754
internal_weight=358 212 146 76 136 95 75 51 56 61 50 45
internal_count=358 212 146 76 136 95 75 51 56 61 50 45
is_linear=0
shrinkage=0.05


Tree=40
num_leaves=14
num_cat=0
split_feature=2 4 4 14 2 18 4 2 2 20 2 0 2
split_gain=0.00133158 0.000257904 0.000114069 5.18508e-05 3.09499e-05 1.74268e-05 1.59248e-05 8.02141e-06 5.12554e-06 3.89988e-06 3.62489e-06 3.50697e-06 2.28127e-06
threshold=0.58545109629631054 0.60380586981773388 0.56751915812492382 0.61871999502182018 0.59493887424469005 0.57116368114948279 0.57567542791366588 0.60863348841667186 0.59912890195846569 0.61990883882337233 0.59064042568206798 0.58191639184951793 0.57270652055740368
decision_type=2 2 2 2 2 2 2 2 2 2 2 2 2
left_child=2 4 5 7 10 -1 12 -3 -6 -9 -2 -8 -4
right_child=1 3 6 -5 8 -7 11 9 -10 -11 -12 -13 -14
leaf_value=-0.00015743283632521827 -7.336761468493557e-06 0.00010152507780326738 -0.00012321604823227971 0.00021427084316201218 4.2993331185749011e-05 -0.00022062812990043313 -8.1500302767381074e-05 0.00015242407214827836 7.1516628876062375e-05 0.00012157350624550287 1.7453646975506369e-05 -5.5217862113336608e-05 -0.00010110622242791578
leaf_weight=24 29 27 20 20 36 20 30 20 28 21 30 22 28
leaf_count=24 29 27 20 20 36 20 30 20 28 21 30 22 28
internal_value=-1.85031e-06 7.81478e-05 -0.00011907 0.000143501 3.13908e-05 -0.000186158 -8.9551e-05 0.000122687 5.54723e-05 0.000136623 5.26853e-06 -7.03808e-05 -0.000110319
internal_weight=355 211 144 88 123 44 100 68 64 41 59 52 48
internal_count=355 211 144 88 123 44 100 68 64 41 59 52 48
is_linear=0
shrinkage=0.05


Tree=41
num_leaves=13
num_cat=0
split_feature=2 4 2 14 2 2 2 4 2 2 20 2
split_gain=0.00120175 0.000232758 0.00010319 4.67954e-05 2.79704e-05 2.09057e-05 7.25093e-06 5.15342e-06 3.80588e-06 3.74602e-06 3.73423e-06 2.76022e-06
threshold=0.58545109629631054 0.60380586981773388 0.5652352273464204 0.61871999502182018 0.59462580084800731 0.57469451427459728 0.60804504156112682 0.59835463762283336 0.5802062749862672 0.57250490784645092 0.61990883882337233 0.59064042568206798
decision_type=2 2 2 2 2 2 2 2 2 2 2 2
left_child=2 4 -1 6 11 9 -3 -6 -7 -4 -8 -2
right_child=1 3 5 -5 7 8 10 -9 -10 -11 -12 -13
leaf_value=-0.0001892477571827305 -6.9699233633933732e-06 9.5139496028423317e-05 -0.00012580552698906373 0.00020355730099254289 3.8360299451077093e-05 -7.8412869986958621e-05 0.00014480286918114871 6.6121994041168361e-05 -5.1585604524007067e-05 -9.8656607345522695e-05 0.00011526183899031425 1.5245514880483051e-05
leaf_weight=34 29 25 27 20 35 39 20 32 20 24 23 27
leaf_count=34 29 25 27 20 35 39 20 32 20 24 23 27
internal_value=-1.75779e-06 7.42404e-05 -0.000113116 0.000136326 2.98213e-05 -8.95847e-05 0.000116552 5.16196e-05 -6.93189e-05 -0.00011303 0.000129002 3.74109e-06
internal_weight=355 211 144 88 123 110 68 67 59 51 43 56
internal_count=355 211 144 88 123 110 68 67 59 51 43 56
is_linear=0
shrinkage=0.05


Tree=42
num_leaves=15
num_cat=0
split_feature=2 4 2 14 2 2 4 2 2 20 2 0 4 4
split_gain=0.00108458 0.000210065 9.32259e-05 4.22328e-05 2.5262e-05 1.70045e-05 1.25547e-05 6.54397e-06 4.30017e-06 3.37014e-06 2.96962e-06 2.3481e-06 1.90887e-06 4.05607e-07
threshold=0.58545109629631054 0.60380586981773388 0.56753045320510875 0.61871999502182018 0.59493887424469005 0.56319001317024242 0.57632899284362804 0.60804504156112682 0.59988901019096386 0.61990883882337233 0.59107425808906566 0.58191639184951793 0.57273113727569591 0.59709069132804882
decision_type=2 2 2 2 2 2 2 2 2 2 2 2 2 2
left_child=2 4 5 7 10 -1 12 -3 13 -9 -2 -8 -4 -6
right_child=1 3 6 -5 8 -7 11 9 -10 -11 -12 -13 -14 -15
leaf_value=-0.00020149593241512777 -5.5738657493975552e-06 9.038252080790699e-05 -0.00010938245977740735 0.00019337943544087469 3.5283427932881751e-05 -0.00013964116433635355 -7.209210400469601e-05 0.00013756272499449552 6.7390784312485025e-05 0.00010949874786487983 1.6942065576480909e-05 -4.9694775357651953e-05 -8.9691367065825034e-05 4.5232666196257234e-05
leaf_weight=20 32 25 20 20 20 25 25 20 23 23 27 22 32 21
leaf_count=20 32 25 20 20 20 25 25 20 23 23 27 22 32 21
internal_value=-1.6699e-06 7.05284e-05 -0.00010746 0.00012951 2.83302e-05 -0.000167132 -8.0337e-05 0.000110725 5.00866e-05 0.000122552 4.73004e-06 -6.16082e-05 -9.72649e-05 4.03794e-05
internal_weight=355 211 144 88 123 45 99 68 64 43 59 47 52 41
internal_count=355 211 144 88 123 45 99 68 64 43 59 47 52 41
is_linear=0
shrinkage=0.05


Tree=43
num_leaves=14
num_cat=0
split_feature=2 4 2 13 2 2 2 2 15 4 1 2 2
split_gain=0.000978869 0.000191645 8.32449e-05 3.87387e-05 2.34452e-05 1.62632e-05 5.8174e-06 4.2476e-06 3.27865e-06 3.03149e-06 2.66815e-06 2.40128e-06 4.80736e-07
threshold=0.58496978878974926 0.60380586981773388 0.5652352273464204 0.61871999502182018 0.59462580084800731 0.57469451427459728 0.60804504156112682 0.59988901019096386 0.61284086108207714 0.57113486528396618 0.5769508183002473 0.58944019675254833 0.59700423479080211
decision_type=2 2 2 2 2 2 2 2 2 2 2 2 2
left_child=2 4 -1 6 11 9 -3 12 -8 -4 -7 -2 -6
right_child=1 3 5 -5 7 10 8 -9 -10 -11 -12 -13 -14
leaf_value=-0.00017098405138205958 -1.0453016810580656e-05 8.586339489556849e-05 -0.00011596463737078011 0.00018420476699247958 3.2280066939578815e-05 -7.3270251854292814e-05 0.00012968331548935649 6.4021245697918149e-05 0.00010206287725374015 -9.1351170478195986e-05 -5.177084585065368e-05 1.0821907502152801e-05 4.2732728020796043e-05
leaf_weight=34 21 25 22 20 22 31 22 23 21 29 27 36 22
leaf_count=34 21 25 22 20 22 31 22 23 21 29 27 36 22
internal_value=-1.58641e-06 6.66032e-05 -0.000102679 0.000123034 2.65552e-05 -8.13724e-05 0.000105043 4.66085e-05 0.000116194 -0.000101969 -6.32619e-05 2.98378e-06 3.75064e-05
internal_weight=355 212 143 88 124 109 68 67 43 51 58 57 44
internal_count=355 212 143 88 124 109 68 67 43 51 58 57 44
is_linear=0
shrinkage=0.05


Tree=44
num_leaves=14
num_cat=0
split_feature=2 4 2 17 4 2 4 0 10 2 2 2 2
split_gain=0.000883444 0.000171088 7.62639e-05 3.95784e-05 2.06783e-05 1.53883e-05 4.94625e-06 3.46593e-06 2.97038e-06 2.88592e-06 2.77145e-06 1.24312e-06 4.35963e-07
threshold=0.58545109629631054 0.60380586981773388 0.5652352273464204 0.0038435918621466127 0.59375020861625682 0.57469451427459728 0.59835463762283336 0.60920450091362011 0.0031954717897159078 0.5802062749862672 0.57250490784645092 0.58944019675254833 0.59594044089317333
decision_type=2 2 2 2 2 2 2 2 2 2 2 2 2
left_child=2 4 -1 7 11 10 12 -3 -9 -7 -4 -2 -6
right_child=1 3 5 -5 6 9 -8 8 -10 -11 -12 -13 -14
leaf_value=-0.00016243485254509486 -9.5760943338518714e-06 8.0676723155193034e-05 -0.00010785941741670724 0.00017677704787014852 2.5741758942049708e-05 -6.7287563564231965e-05 5.6856261562643343e-05 0.00011731977458111943 9.212886388096112e-05 -4.3926596263190738e-05 -8.4507557039614775e-05 6.7451693212206015e-06 3.5813582904996689e-05
leaf_weight=34 20 20 27 21 21 39 32 25 22 20 24 28 22
leaf_count=34 20 20 27 21 21 39 32 25 22 20 24 28 22
internal_value=-1.50709e-06 6.36536e-05 -9.69855e-05 0.000116883 2.55709e-05 -7.67558e-05 4.19717e-05 9.81099e-05 0.000105528 -5.93686e-05 -9.68703e-05 -5.53572e-08 3.08948e-05
internal_weight=355 211 144 88 123 110 75 67 47 59 51 48 43
internal_count=355 211 144 88 123 110 75 67 47 59 51 48 43
is_linear=0
shrinkage=0.05


Tree=45
num_leaves=14
num_cat=0
split_feature=2 0 4 1 2 4 1 1 4 4 4 19 2
split_gain=0.000834628 0.0002086 8.47568e-05 8.03643e-05 2.18948e-05 1.04484e-05 8.97358e-06 4.18877e-06 3.51407e-06 3.30568e-06 1.41819e-06 9.92041e-07 7.61577e-07
threshold=0.58545109629631054 0.62207043170928966 0.59951499104499828 0.56082558631896984 0.57469451427459728 0.59375020861625682 0.61110499501228344 0.56746128201484691 0.60380586981773388 0.58089450001716625 0.58878427743911754 0.0038605141088664348 0.59625494480133068
decision_type=2 2 2 2 2 2 2 2 2 2 2 2 2
left_child=3 2 5 -1 7 10 8 -5 -4 -6 -2 -10 -7
right_child=1 -3 6 4 9 12 -8 -9 11 -11 -12 -13 -14
leaf_value=-0.00018393641304490822 -9.9281731598921398e-06 0.0002172398497350514 5.881216818054852e-05 -0.00011115475077061884 -6.4028238744607991e-05 2.556598713757315e-05 0.00011064841722448666 -8.4946590165297189e-05 8.9117902351300364e-05 -3.8546287178178325e-05 7.1493961689655754e-06 7.4862408431587178e-05 3.7606925892258261e-05
leaf_weight=21 20 20 26 31 35 24 21 30 23 20 31 26 29
leaf_count=21 20 20 26 31 35 24 21 30 23 20 31 26 29
internal_value=2.94718e-06 6.32769e-05 4.78806e-05 -9.39327e-05 -7.76389e-05 1.66082e-05 8.1759e-05 -9.82655e-05 7.367e-05 -5.47621e-05 4.5231e-07 8.15538e-05 3.21544e-05
internal_weight=357 220 200 137 116 104 96 61 75 55 51 49 53
internal_count=357 220 200 137 116 104 96 61 75 55 51 49 53
is_linear=0
shrinkage=0.05


Tree=46
num_leaves=14
num_cat=0
split_feature=2 1 4 1 4 4 1 1 2 1 4 4 1
split_gain=0.000753252 0.000187455 7.66798e-05 7.25288e-05 1.97726e-05 1.19435e-05 6.70796e-06 3.63124e-06 3.10527e-06 1.74259e-06 1.4104e-06 1.27991e-06 2.16195e-07
threshold=0.58545109629631054 0.61705920100212108 0.60080990195274364 0.56082558631896984 0.57453596591949474 0.59375020861625682 0.61110499501228344 0.56746128201484691 0.57816502451896679 0.60298448801040661 0.59759545326232921 0.58878427743911754 0.5940256416797639
decision_type=2 2 2 2 2 2 2 2 2 2 2 2 2
left_child=3 2 5 -1 7 11 9 -5 -6 -4 12 -2 -7
right_child=1 -3 6 4 8 10 -8 -9 -10 -11 -12 -13 -14
leaf_value=-0.00017473959125622753 -9.4317643538488488e-06 0.00020606396821676754 6.3793328470261452e-05 -0.00010559701289410793 -6.5036772418982148e-05 2.3826907272450627e-05 0.00010541494120843709 -8.098238472955238e-05 -4.1428366918504861e-05 8.0163012682680493e-05 4.3264252070168203e-05 6.7919263433542517e-06 3.1178693752735853e-05
leaf_weight=21 20 20 29 31 26 20 21 29 30 37 22 31 20
leaf_count=21 20 20 29 31 26 20 21 29 30 37 22 31 20
internal_value=2.79982e-06 6.01131e-05 4.5518e-05 -8.9236e-05 -7.37569e-05 1.83526e-05 8.08017e-05 -9.36999e-05 -5.23894e-05 7.29703e-05 3.30956e-05 4.29695e-07 2.75028e-05
internal_weight=357 220 200 137 116 113 87 60 56 66 62 51 40
internal_count=357 220 200 137 116 113 87 60 56 66 62 51 40
is_linear=0
shrinkage=0.05


Tree=47
num_leaves=15
num_cat=0
split_feature=4 0 4 4 4 4 1 4 4 4 6 4 4 12
split_gain=0.000679837 0.000173314 7.17938e-05 6.36918e-05 1.66256e-05 9.24277e-06 7.08163e-06 4.01277e-06 2.89212e-06 1.37245e-06 9.08428e-07 6.32551e-07 4.78788e-07 2.50419e-07
threshold=0.58460915088653576 0.62207043170928966 0.59951499104499828 0.56273540854454052 0.57208898663520824 0.59375020861625682 0.61110499501228344 0.577610343694687 0.60380586981773388 0.58878427743911754 0.60528312087059033 0.5961749553680421 0.56644064188003551 0.57510429620742809
decision_type=2 2 2 2 2 2 2 2 2 2 2 2 2 2
left_child=3 2 5 -1 12 9 8 13 -4 -2 -10 -7 -5 -6
right_child=1 -3 6 4 7 11 -8 -9 10 -11 -12 -13 -14 -15
leaf_value=-0.00016864948862348682 -9.667855651376e-06 0.00019657790406199641 5.3037204914009921e-05 -0.00010225051803336968 -7.1405396253491443e-05 2.2973812883719804e-05 9.9365967824789042e-05 -4.3753078094713638e-05 6.612634920615661e-05 6.4523299919704695e-06 7.9813717726480085e-05 3.3947463189492578e-05 -9.157357299478637e-05 -6.3587841868866245e-05
leaf_weight=20 23 20 26 21 21 24 21 31 22 31 27 29 21 20
leaf_count=20 23 20 26 21 21 24 21 31 22 31 27 29 21 20
internal_value=2.65983e-06 5.61456e-05 4.23099e-05 -8.63501e-05 -7.19116e-05 1.41449e-05 7.37021e-05 -5.7328e-05 6.65162e-05 -4.13675e-07 7.36684e-05 2.89783e-05 -9.6912e-05 -6.7592e-05
internal_weight=357 223 203 134 114 107 96 72 75 54 49 53 42 41
internal_count=357 223 203 134 114 107 96 72 75 54 49 53 42 41
is_linear=0
shrinkage=0.05


Tree=48
num_leaves=15
num_cat=0
split_feature=2 1 4 1 2 4 1 1 4 19 4 4 19 1
split_gain=0.000613604 0.000153709 6.23595e-05 6.03235e-05 1.59357e-05 9.68497e-06 5.28882e-06 2.97074e-06 2.5677e-06 1.44713e-06 1.15347e-06 1.03747e-06 6.27459e-07 1.83046e-07
threshold=0.58545109629631054 0.61705920100212108 0.60080990195274364 0.56082558631896984 0.57469451427459728 0.59375020861625682 0.61110499501228344 0.56868600845336925 0.58089450001716625 0.0035260748007370905 0.59759545326232921 0.58878427743911754 0.0057835495310465503 0.5940256416797639
decision_type=2 2 2 2 2 2 2 2 2 2 2 2 2 2
left_child=3 2 5 -1 7 11 9 -5 -6 -4 13 -2 -11 -7
right_child=1 -3 6 4 8 10 -8 -9 -10 12 -12 -13 -14 -15
leaf_value=-0.00015851869836859848 -8.476783395963139e-06 0.00018641792798007375 7.6742032321081282e-05 -9.3531337832765936e-05 -5.5073715463679824e-05 2.1377134216891137e-05 9.4712981981934891e-05 -7.1218937339905937e-05 -3.2615539385005836e-05 5.4534529044758533e-05 3.9013194195418197e-05 6.1297134988630973e-06 6.6369131673127413e-05 2.8141859002062122e-05
leaf_weight=21 20 20 21 35 35 20 21 26 20 21 22 31 24 20
leaf_count=21 20 20 21 35 35 20 21 26 20 21 22 31 24 20
internal_value=2.52684e-06 5.42552e-05 4.1039e-05 -8.05407e-05 -6.6424e-05 1.65412e-05 7.28579e-05 -8.40211e-05 -4.69071e-05 6.5904e-05 2.98173e-05 4.01676e-07 6.08463e-05 2.47595e-05
internal_weight=357 220 200 137 116 113 87 61 55 66 62 51 45 40
internal_count=357 220 200 137 116 113 87 61 55 66 62 51 45 40
is_linear=0
shrinkage=0.05


Tree=49
num_leaves=15
num_cat=0
split_feature=2 0 4 4 2 4 2 2 20 4 4 2 2 2
split_gain=0.00055402 0.000142197 5.8287e-05 5.31087e-05 1.32804e-05 7.55866e-06 5.73917e-06 3.36631e-06 2.35804e-06 1.10426e-06 8.64489e-07 8.08309e-07 3.32402e-07 3.28422e-07
threshold=0.58496978878974926 0.62207043170928966 0.59951499104499828 0.56273540854454052 0.57250490784645092 0.59279459714889537 0.60785099864006054 0.57770073413848888 0.62067855620753176 0.60258027911186229 0.59544542431831371 0.58842983841896068 0.57469451427459728 0.56650483608245861
decision_type=2 2 2 2 2 2 2 2 2 2 2 2 2 2
left_child=3 2 5 -1 13 11 9 12 -8 -4 -7 -2 -6 -5
right_child=1 -3 6 4 7 10 8 -9 -10 -11 -12 -13 -14 -15
leaf_value=-0.00015310341947042617 -9.316604588266707e-06 0.00017788663972169162 4.5979239456799063e-05 -9.1533034130753514e-05 -6.5535820613149551e-05 1.7451737494411646e-05 8.9558413717895756e-05 -3.8941111900688462e-05 6.6831255723324526e-05 6.1034255837700497e-05 2.9772459633282524e-05 3.7627934105970509e-06 -5.6629467078230601e-05 -8.2690201400380053e-05
leaf_weight=20 21 20 21 21 20 24 25 30 21 29 35 27 22 21
leaf_count=20 21 20 21 21 20 24 25 30 21 29 35 27 22 21
internal_value=2.4005e-06 5.0684e-05 3.81517e-05 -7.79519e-05 -6.47674e-05 1.27741e-05 6.64372e-05 -5.17333e-05 7.9183e-05 5.47111e-05 2.47606e-05 -1.95944e-06 -6.08706e-05 -8.71116e-05
internal_weight=357 223 203 134 114 107 96 72 46 50 59 48 42 42
internal_count=357 223 203 134 114 107 96 72 46 50 59 48 42 42
is_linear=0
shrinkage=0.05


Tree=50
num_leaves=14
num_cat=0
split_feature=4 14 12 4 4 4 2 4 2 13 4 15 12
split_gain=0.000508418 0.000160093 5.81472e-05 4.01858e-05 1.49183e-05 1.29274e-05 4.75701e-06 3.31622e-06 3.08985e-06 5.83798e-06 8.98162e-07 3.8554e-07 2.74885e-08
threshold=0.58843013644218456 0.61950385570526134 0.56936910748481762 0.60080990195274364 0.58363658189773571 0.56273540854454052 0.59393885731697094 0.57632899284362804 0.60785099864006054 0.61377087235450756 0.59725561738014232 0.57347512245178234 0.59248921275138866
decision_type=2 2 2 2 2 2 2 2 2 2 2 2 2
left_child=2 3 5 6 7 -1 12 11 -5 -10 -8 -4 -2
right_child=1 -3 4 8 -6 -7 10 -9 9 -11 -12 -13 -14
leaf_value=-0.00013828106311848388 3.3839406728475294e-06 0.00018944794588605875 -6.7336661690522152e-05 5.4083375370181678e-05 -1.1427447023899211e-05 -8.76207312103361e-05 2.1676681863027626e-05 -4.2289432063366158e-05 8.8322632031382199e-05 5.3447921093915541e-05 3.465379152961153e-05 -5.8078260454666713e-05 6.0054148548260858e-06
leaf_weight=20 20 20 23 36 28 34 30 35 28 21 24 22 20
leaf_count=20 20 20 23 36 28 34 30 35 28 21 24 22 20
internal_value=1.74485e-06 5.52823e-05 -6.40203e-05 4.02917e-05 -4.28386e-05 -0.000106384 1.77636e-05 -5.38324e-05 6.52052e-05 7.33763e-05 2.74443e-05 -6.28103e-05 4.69468e-06
internal_weight=361 199 162 179 108 54 94 80 85 49 54 45 40
internal_count=361 199 162 179 108 54 94 80 85 49 54 45 40
is_linear=0
shrinkage=0.05


Tree=51
num_leaves=14
num_cat=0
split_feature=4 8 12 4 2 12 0 2 4 2 4 19 15
split_gain=0.000458847 0.000149846 5.24779e-05 3.52925e-05 1.35401e-05 1.20972e-05 4.39036e-06 9.54526e-06 4.1913e-06 1.8003e-06 8.72711e-07 6.11779e-07 2.97048e-07
threshold=0.58843013644218456 0.61320933243996822 0.56936910748481762 0.60080990195274364 0.58108451962471019 0.56273540854454052 0.61964401602745067 0.61067023873329174 0.59375020861625682 0.5761547088623048 0.59725561738014232 0.0048111520817883278 0.57347512245178234
decision_type=2 2 2 2 2 2 2 2 2 2 2 2 2
left_child=2 3 5 8 9 -1 7 11 -2 12 -10 -5 -4
right_child=1 -3 4 6 -6 -7 -8 -9 10 -11 -12 -13 -14
leaf_value=-0.00013073084063805818 3.6069679321666924e-06 0.0001823191654693801 -6.3969829352572563e-05 5.8982370371398114e-05 -1.6668131502228791e-05 -8.2186126294828046e-05 4.0580408549431015e-05 9.2475922186470915e-05 2.0082587258057726e-05 -4.3621470642931482e-05 3.2770152472000079e-05 4.6913333790143952e-05 -5.5638031858507021e-05
leaf_weight=21 37 20 23 21 38 33 20 24 33 27 23 21 20
leaf_count=21 37 20 23 21 38 33 20 24 33 27 23 21 20
internal_value=1.6576e-06 5.25182e-05 -6.08193e-05 3.80153e-05 -4.06966e-05 -0.000101065 6.11028e-05 6.73217e-05 1.66656e-05 -5.37407e-05 2.52936e-05 5.29479e-05 -6.00946e-05
internal_weight=361 199 162 179 108 54 86 66 93 70 56 42 43
internal_count=361 199 162 179 108 54 86 66 93 70 56 42 43
is_linear=0
shrinkage=0.05


Tree=52
num_leaves=13
num_cat=0
split_feature=4 14 2 12 2 4 2 12 2 4 4 2
split_gain=0.000414446 0.000147681 4.31077e-05 3.4935e-05 8.22118e-06 6.85074e-06 3.03748e-06 1.70191e-06 1.20069e-06 8.23342e-07 7.30894e-07 5.2185e-07
threshold=0.58460915088653576 0.61950385570526134 0.60084959864616405 0.56381070613861095 0.57469451427459728 0.59356513619422924 0.61067023873329174 0.56936910748481762 0.57816502451896679 0.59693652391433727 0.60500457882881176 0.58842983841896068
decision_type=2 2 2 2 2 2 2 2 2 2 2 2
left_child=3 2 5 -1 7 11 10 -5 -6 -7 -4 -2
right_child=1 -3 6 4 8 9 -8 -9 -10 -11 -12 -13
leaf_value=-0.00011683252636834772 -7.0098849708143552e-06 0.00017378923534124626 4.3709341780808961e-05 -7.5190264626009463e-05 -4.7465078850192103e-05 1.7379972899410252e-05 6.9441075569816994e-05 -5.8482513787956651e-05 -3.197474118145504e-05 2.919478007744805e-05 5.573861561580478e-05 2.8011737068674961e-06
leaf_weight=27 23 20 23 27 22 30 35 35 29 29 28 33
leaf_count=27 23 20 23 27 22 30 35 35 29 29 28 33
internal_value=1.57472e-06 4.42148e-05 3.13219e-05 -6.57357e-05 -5.35268e-05 1.12979e-05 5.80981e-05 -6.57585e-05 -3.86568e-05 2.31873e-05 5.03136e-05 -1.22837e-06
internal_weight=361 221 201 140 113 115 86 62 51 59 51 56
internal_count=361 221 201 140 113 115 86 62 51 59 51 56
is_linear=0
shrinkage=0.05


Tree=53
num_leaves=15
num_cat=0
split_feature=2 8 12 2 2 4 0 2 4 12 4 2 2 4
split_gain=0.00037412 0.000134062 3.53538e-05 3.36102e-05 1.14009e-05 4.12172e-06 3.94184e-06 9.40055e-06 2.7353e-06 1.06875e-06 7.89261e-07 5.15661e-07 2.07611e-07 1.26269e-07
threshold=0.58620598912239086 0.61320933243996822 0.56381070613861095 0.59988901019096386 0.57751059532165538 0.59356513619422924 0.61964401602745067 0.61067023873329174 0.57208898663520824 0.58169007301330578 0.60380586981773388 0.59687596559524547 0.58975651860237133 0.57440432906150829
decision_type=2 2 2 2 2 2 2 2 2 2 2 2 2 2
left_child=2 3 -1 5 8 12 7 10 -4 -6 -5 -7 -2 -10
right_child=1 -3 4 6 9 11 -8 -9 13 -11 -12 -13 -14 -15
leaf_value=-0.00011099090086106488 -2.9244249233784105e-06 0.00016736275283619763 -6.870214247579785e-05 3.8109196830191649e-05 -3.4394530192240266e-05 1.6324892153377357e-05 3.3253241635975424e-05 8.394528843685598e-05 -5.2924483752576635e-05 -1.8590656782180304e-05 5.1020327047244168e-05 2.6350039874871624e-05 3.7233205266997887e-06 -4.7373289652612241e-05
leaf_weight=27 24 20 38 20 23 29 20 24 20 20 29 23 23 21
leaf_count=27 24 20 38 20 23 29 20 24 20 20 29 23 23 21
internal_value=1.49599e-06 4.41684e-05 -5.92191e-05 3.13357e-05 -4.77615e-05 1.10598e-05 5.29196e-05 5.83077e-05 -5.90381e-05 -2.70439e-05 4.57505e-05 2.07591e-05 3.28727e-07 -5.00812e-05
internal_weight=361 212 149 192 122 99 93 73 79 43 49 52 47 41
internal_count=361 212 149 192 122 99 93 73 79 43 49 52 47 41
is_linear=0
shrinkage=0.05


Tree=54
num_leaves=13
num_cat=0
split_feature=4 0 2 12 2 4 9 1 12 2 4 2
split_gain=0.000337912 0.000129095 3.39406e-05 2.84167e-05 6.6643e-06 5.4112e-06 3.18175e-06 4.29914e-06 1.49387e-06 9.16416e-07 6.07885e-07 4.18151e-07
threshold=0.58460915088653576 0.62207043170928966 0.60084959864616405 0.56381070613861095 0.57510432600975048 0.59356513619422924 0.0037450117249671626 0.60865575075149547 0.56936910748481762 0.57816502451896679 0.59693652391433727 0.58842983841896068
decision_type=2 2 2 2 2 2 2 2 2 2 2 2
left_child=3 2 5 -1 8 11 7 -4 -5 -6 -7 -2
right_child=1 -3 6 4 9 10 -8 -9 -10 -11 -12 -13
leaf_value=-0.00010544135506346789 -6.2066561687733271e-06 0.00016107029994600453 4.714828250335383e-05 -6.8054080529017722e-05 -4.2670910728962293e-05 1.5678021106092881e-05 3.6170549871409704e-05 7.4179090339991194e-05 -5.2495710790228465e-05 -2.8956006632330988e-05 2.5829916231831984e-05 2.5756724646657169e-06
leaf_weight=27 23 20 38 27 21 30 24 24 36 29 29 33
leaf_count=27 23 20 38 27 21 30 24 24 36 29 29 33
internal_value=1.42119e-06 3.99235e-05 2.7869e-05 -5.93574e-05 -4.83462e-05 1.01013e-05 5.16282e-05 5.76118e-05 -5.91636e-05 -3.47163e-05 2.06679e-05 -1.03136e-06
internal_weight=361 221 201 140 113 115 86 62 63 50 59 56
internal_count=361 221 201 140 113 115 86 62 63 50 59 56
is_linear=0
shrinkage=0.05


Tree=55
num_leaves=15
num_cat=0
split_feature=2 5 2 2 1 2 20 2 1 2 2 2 13 2
split_gain=0.000294295 8.32931e-05 3.46345e-05 1.45784e-05 7.94992e-06 6.87269e-06 3.63989e-06 5.43984e-06 2.64376e-06 1.77903e-06 2.89019e-07 2.54689e-07 1.0818e-07 8.55106e-08
threshold=0.59107425808906566 0.61854907870292675 0.5761547088623048 0.60233524441719066 0.55977562069892894 0.58282071352005016 0.62085809362017375 0.6113497018814088 0.56868600845336925 0.5953054428100587 0.58797597885131847 0.59868574142456066 0.57367572188377391 0.5793004333972932
decision_type=2 2 2 2 2 2 2 2 2 2 2 2 2 2
left_child=2 3 4 9 -1 13 7 -5 -6 -2 -7 -11 -10 -4
right_child=1 -3 5 6 8 10 -8 -9 12 11 -12 -13 -14 -15
leaf_value=-9.0523559404010446e-05 1.0725896117946832e-05 0.00014435271574711806 -3.6423360143089667e-05 4.5933360745424806e-05 -6.5807650632147363e-05 -9.5025789050851017e-06 3.3370285018463618e-05 7.8980142006912502e-05 -4.9761989000465047e-05 2.2239365935092793e-05 -1.1977322396267647e-06 2.980937471147627e-05 -4.4681073486572135e-05 -3.1799763819435617e-05
leaf_weight=21 30 20 20 33 36 20 20 20 22 20 22 25 20 20
leaf_count=21 30 20 20 33 36 20 20 20 22 20 22 25 20 20
internal_value=9.23618e-07 4.85813e-05 -4.33112e-05 3.56392e-05 -6.32167e-05 -1.92788e-05 5.15453e-05 5.84038e-05 -5.58649e-05 2.01573e-05 -5.15242e-06 2.64449e-05 -4.73425e-05 -3.41116e-05
internal_weight=349 168 181 148 99 82 73 53 78 75 42 45 42 40
internal_count=349 168 181 148 99 82 73 53 78 75 42 45 42 40
is_linear=0
shrinkage=0.05


Tree=56
num_leaves=15
num_cat=0
split_feature=4 5 4 4 0 4 20 20 4 4 4 4 4 4
split_gain=0.000265642 7.40536e-05 3.30432e-05 1.23038e-05 9.03275e-06 5.48682e-06 5.06432e-06 3.37919e-06 4.77717e-06 1.39255e-06 1.08055e-06 2.18292e-07 1.76928e-07 6.40295e-08
threshold=0.59168446063995372 0.61854907870292675 0.57731020450592052 0.60258027911186229 0.56839010119438182 0.58384954929351818 0.57999541288992484 0.62085809362017375 0.60982489585876476 0.59544542431831371 0.57208898663520824 0.59926351904869091 0.58843013644218456 0.57440432906150829
decision_type=2 2 2 2 2 2 2 2 2 2 2 2 2 2
left_child=2 3 4 9 6 -4 -1 8 -5 -2 -6 -11 -7 -12
right_child=1 -3 5 7 10 12 -8 -9 -10 11 13 -13 -14 -15
leaf_value=-5.9564543538357383e-05 1.1531282018103381e-05 0.00013713508516957518 -2.969007017216771e-05 4.2907760071102534e-05 -5.5437122646253564e-05 -6.3380961987171586e-06 -9.514657080217148e-05 3.1701770767540443e-05 7.3582782298134679e-05 2.2122241485207769e-05 -4.417672767193013e-05 2.9165800581474536e-05 2.3295880438922722e-07 -4.0223722171504052e-05
leaf_weight=20 29 20 37 30 25 21 20 20 22 22 21 22 20 20
leaf_count=20 29 20 37 30 25 21 20 20 22 22 21 22 20 20
internal_value=8.77438e-07 4.69426e-05 -4.0431e-05 3.45023e-05 -5.86069e-05 -1.57304e-05 -7.73556e-05 4.91679e-05 5.58857e-05 2.00376e-05 -4.72441e-05 2.5644e-05 -3.1327e-06 -4.22484e-05
internal_weight=349 165 184 145 106 78 40 72 52 73 66 44 41 41
internal_count=349 165 184 145 106 78 40 72 52 73 66 44 41 41
is_linear=0
shrinkage=0.05


Tree=57
num_leaves=15
num_cat=0
split_feature=2 21 2 4 0 20 2 10 2 1 2 4 2 2
split_gain=0.000239742 6.92824e-05 2.98613e-05 9.92462e-06 8.78788e-06 4.57055e-06 4.20711e-06 3.28415e-06 4.72918e-06 1.11933e-06 9.93555e-07 2.12225e-07 1.24231e-07 1.1935e-07
threshold=0.59177023172378551 0.60734490837438238 0.57770073413848888 0.60179516673088085 0.56839010119438182 0.57999541288992484 0.58365023136138927 0.0035570300573763542 0.60982489585876476 0.57013040781021129 0.5953054428100587 0.58843013644218456 0.59868574142456066 0.57469451427459728
decision_type=2 2 2 2 2 2 2 2 2 2 2 2 2 2
left_child=2 3 4 10 5 -1 -4 8 -5 -6 -2 -8 -12 -11
right_child=1 -3 6 7 9 -7 11 -9 -10 13 12 -13 -14 -15
leaf_value=-5.6586317080018488e-05 1.0447286986500668e-05 0.00012719857669997675 -2.7942140562421025e-05 3.9636449825290282e-05 -5.2970079802131899e-05 -9.0389244755897385e-05 -6.8211335293772606e-06 2.6862882514251399e-05 6.996073629125022e-05 -4.2062040534801784e-05 2.0074240383110008e-05 2.2131082914711441e-07 2.5647180518717508e-05 -3.7012540005062792e-05
leaf_weight=20 27 22 30 36 24 20 23 20 20 25 20 20 20 22
leaf_count=20 27 22 30 36 24 20 23 20 20 25 20 20 20 22
internal_value=8.33565e-07 4.45955e-05 -3.84095e-05 3.18873e-05 -5.47443e-05 -7.34878e-05 -1.35716e-05 4.42551e-05 5.04666e-05 -4.41846e-05 1.78583e-05 -3.54558e-06 2.28607e-05 -3.96984e-05
internal_weight=349 165 184 143 111 40 73 76 56 71 67 43 40 47
internal_count=349 165 184 143 111 40 73 76 56 71 67 43 40 47
is_linear=0
shrinkage=0.05


Tree=58
num_leaves=15
num_cat=0
split_feature=2 16 2 4 2 21 16 6 6 4 2 2 4 2
split_gain=0.000216379 6.50819e-05 2.55765e-05 1.02123e-05 9.10513e-06 6.86235e-06 3.64394e-06 2.26842e-06 2.62318e-06 1.07996e-06 6.97997e-07 2.06773e-07 1.40764e-07 8.83515e-08
threshold=0.59107425808906566 0.61904954910278331 0.57250490784645092 0.60179516673088085 0.58282071352005016 0.5608013499256802 0.5651250183582307 0.60783469796180734 0.6043293470144272 0.59519556164741527 0.57770073413848888 0.58797597885131847 0.59835463762283336 0.57469451427459728
decision_type=2 2 2 2 2 2 2 2 2 2 2 2 2 2
left_child=2 3 5 9 10 6 -1 8 -5 -2 13 -6 -11 -4
right_child=1 -3 4 7 11 -7 -8 -9 -10 12 -12 -13 -14 -15
leaf_value=-6.365959757553915e-05 8.7459635216090107e-06 0.00012631335937840049 -3.9593997011568558e-05 3.9621035913504395e-05 -8.0303635877498897e-06 -8.6399047213490127e-05 -3.5271722827019405e-05 2.9054932333978782e-05 6.1973983593772929e-05 1.8528449401769432e-05 -2.737241388136421e-05 -1.0058603519072761e-06 2.4317686031627957e-05 -3.5161913150328807e-05
leaf_weight=26 28 20 23 35 20 20 20 22 21 21 28 22 21 22
leaf_count=26 28 20 23 35 20 20 20 22 21 21 28 22 21 22
internal_value=7.91887e-07 4.16567e-05 -3.71379e-05 3.02166e-05 -2.2899e-05 -6.1948e-05 -5.1317e-05 4.2659e-05 4.80034e-05 1.63522e-05 -3.35706e-05 -4.35086e-06 2.14231e-05 -3.74272e-05
internal_weight=349 168 181 148 115 66 46 78 56 70 73 42 42 45
internal_count=349 168 181 148 115 66 46 78 56 70 73 42 42 45
is_linear=0
shrinkage=0.05


Tree=59
num_leaves=15
num_cat=0
split_feature=4 21 4 4 0 4 20 20 4 4 1 4 4 4
split_gain=0.000195326 5.88076e-05 2.43034e-05 7.7712e-06 7.03846e-06 4.07492e-06 3.88408e-06 3.48796e-06 3.54255e-06 8.02255e-07 7.47181e-07 1.2704e-07 1.23922e-07 4.27442e-08
threshold=0.59168446063995372 0.60734490837438238 0.57731020450592052 0.60179516673088085 0.56839010119438182 0.58384954929351818 0.57999541288992484 0.62112560713891496 0.60982489585876476 0.59519556164741527 0.57013040781021129 0.59835463762283336 0.58843013644218456 0.57440432906150829
decision_type=2 2 2 2 2 2 2 2 2 2 2 2 2 2
left_child=2 3 4 9 6 -4 -1 8 -5 -2 -6 -11 -7 -12
right_child=1 -3 5 7 10 12 -8 -9 -10 11 13 -13 -14 -15
leaf_value=-5.122686906133822e-05 9.0391443209227876e-06 0.00011635591546854069 -2.5516097741421765e-05 3.6149029911030083e-05 -4.726486310270654e-05 -5.3119533710005706e-06 -8.2388073387846823e-05 2.1565141737482917e-05 6.212539710326209e-05 1.760202687278035e-05 -3.7726494933436206e-05 2.3101801863439114e-05 1.8739965753411526e-07 -3.453270153841004e-05
leaf_weight=20 25 22 37 35 24 21 20 20 21 21 22 21 20 20
leaf_count=20 25 22 37 35 24 21 20 20 21 21 22 21 20 20
internal_value=7.52293e-07 4.0253e-05 -3.46695e-05 2.85448e-05 -5.02575e-05 -1.34859e-05 -6.68075e-05 3.94888e-05 4.58902e-05 1.61307e-05 -4.02272e-05 2.03519e-05 -2.62934e-06 -3.62056e-05
internal_weight=349 165 184 143 106 78 40 76 56 67 66 42 41 42
internal_count=349 165 184 143 106 78 40 76 56 67 66 42 41 42
is_linear=0
shrinkage=0.05


Tree=60
num_leaves=15
num_cat=0
split_feature=4 5 4 4 21 20 2 17 2 2 4 4 4 4
split_gain=0.000157948 4.55585e-05 1.40936e-05 9.30813e-06 5.99132e-06 4.01855e-06 3.76045e-06 2.03339e-06 1.58175e-06 7.38399e-07 4.65673e-07 1.86199e-07 1.33114e-07 6.30535e-08
threshold=0.58460915088653576 0.61784528195858013 0.59835463762283336 0.57208898663520824 0.5596507634127954 0.62112560713891496 0.60863348841667186 0.002451016061163444 0.59261366724967968 0.57816502451896679 0.60258027911186229 0.58878427743911754 0.59528592228889476 0.57567542791366588
decision_type=2 2 2 2 2 2 2 2 2 2 2 2 2 2
left_child=3 2 8 4 7 6 10 -1 11 13 -4 -2 -10 -5
right_child=1 -3 5 9 -6 -7 -8 -9 12 -11 -12 -13 -14 -15
leaf_value=-5.4766783091508844e-05 -4.1401106696784243e-06 9.7353599547237284e-05 2.5061707062625581e-05 -3.4710535779595377e-05 -7.7414915653034339e-05 1.3450737997118269e-05 5.4025678988322258e-05 -3.3180086102220234e-05 9.6711807709652942e-06 -2.2338227339787409e-05 3.4945721059697321e-05 2.2940175688785055e-06 1.4941886583192567e-05 -3.0994122304643194e-05
leaf_weight=24 22 21 22 25 21 20 26 20 25 25 26 23 23 21
leaf_count=24 22 21 22 25 21 20 26 20 25 25 26 23 23 21
internal_value=1.28965e-07 2.75249e-05 1.96832e-05 -4.17707e-05 -5.54418e-05 3.33365e-05 3.8711e-05 -4.49546e-05 5.88304e-06 -2.92549e-05 3.04155e-05 -8.51556e-07 1.21967e-05 -3.30139e-05
internal_weight=344 208 187 136 65 94 74 44 93 71 48 45 48 46
internal_count=344 208 187 136 65 94 74 44 93 71 48 45 48 46
is_linear=0
shrinkage=0.05


Tree=61
num_leaves=13
num_cat=0
split_feature=2 5 2 2 18 20 2 2 2 2 0 2
split_gain=0.000142473 3.86661e-05 1.1957e-05 1.00905e-05 5.4318e-06 3.26492e-06 3.40189e-06 2.83848e-06 9.95383e-07 3.35621e-07 2.04101e-07 1.79173e-07
threshold=0.5867891013622285 0.61784528195858013 0.57062482833862316 0.59950602054595958 0.57116368114948279 0.62085809362017375 0.60863348841667186 0.58180975914001476 0.59261366724967968 0.5761547088623048 0.6059054732322694 0.5953054428100587
decision_type=2 2 2 2 2 2 2 2 2 2 2 2
left_child=2 3 4 8 -1 6 10 9 -2 -4 -5 -10
right_child=1 -3 7 5 -6 -7 -8 -9 11 -11 -12 -13
leaf_value=-4.2721749360470526e-05 1.2119039820024022e-06 9.2485918780550413e-05 -3.3990189893467526e-05 2.6448512124426835e-05 -7.4262766671987873e-05 1.6317238639559312e-05 5.3693880877487925e-05 -1.0627448330595257e-05 9.2326269016969789e-06 -2.6803655782714489e-05 3.3427478338126091e-05 1.5028747918677255e-05
leaf_weight=39 31 21 33 22 21 23 23 25 24 32 20 30
leaf_count=39 31 21 33 22 21 23 23 25 24 32 20 30
internal_value=1.22516e-07 2.8417e-05 -3.64716e-05 2.06398e-05 -5.37611e-05 3.25076e-05 3.82366e-05 -2.49453e-05 8.35311e-06 -3.04522e-05 2.97718e-05 1.24527e-05
internal_weight=344 194 150 173 60 88 65 90 85 65 42 54
internal_count=344 194 150 173 60 88 65 90 85 65 42 54
is_linear=0
shrinkage=0.05


Tree=62
num_leaves=14
num_cat=0
split_feature=4 15 4 16 0 11 9 12 2 2 19 4 4
split_gain=0.000128837 3.76446e-05 1.16609e-05 8.00418e-06 6.4437e-06 2.38271e-06 2.74892e-06 4.00754e-06 1.26432e-06 7.10871e-07 1.94728e-07 1.4797e-07 1.07156e-07
threshold=0.58460915088653576 0.61871999502182018 0.59835463762283336 0.57113486528396618 0.56839010119438182 44.562405350792581 0.0037450117249671626 0.60814118385314953 0.59261366724967968 0.57770073413848888 0.0050359584739298078 0.58878427743911754 0.59528592228889476
decision_type=2 2 2 2 2 2 2 2 2 2 2 2 2
left_child=3 2 8 4 -1 -4 7 -7 11 10 -5 -2 -10
right_child=1 -3 5 9 -6 6 -8 -9 12 -11 -12 -13 -14
leaf_value=-6.9184297925468333e-05 -3.6169937257826947e-06 9.0075139778491577e-05 1.8864398718447305e-05 -2.8287289460422474e-05 -3.5262916415896533e-05 2.8526774274889085e-05 2.1435390524195763e-05 5.9451616980368275e-05 8.7143980599648779e-06 -2.0973371620466761e-05 -3.4402299997568861e-05 2.1187215193416033e-06 1.3443355002258929e-05
leaf_weight=28 22 20 31 30 28 22 22 20 25 27 23 23 23
leaf_count=28 22 20 31 30 28 22 22 20 25 27 23 23 23
internal_value=1.16391e-07 2.48592e-05 1.79213e-05 -3.77255e-05 -5.22236e-05 3.02421e-05 3.57531e-05 4.32529e-05 5.33563e-06 -2.75769e-05 -3.0941e-05 -6.85406e-07 1.09804e-05
internal_weight=344 208 188 136 56 95 64 42 93 80 53 45 48
internal_count=344 208 188 136 56 95 64 42 93 80 53 45 48
is_linear=0
shrinkage=0.05


Tree=63
num_leaves=15
num_cat=0
split_feature=4 5 4 1 11 19 16 1 2 6 2 4 4 4
split_gain=0.000116275 3.40746e-05 1.02444e-05 7.53726e-06 3.18659e-06 3.97807e-06 2.61279e-06 2.26252e-06 1.14105e-06 7.43429e-07 5.02517e-07 1.33543e-07 9.67085e-08 3.83715e-08
threshold=0.58460915088653576 0.61784528195858013 0.59835463762283336 0.55977562069892894 67.445230186960245 0.0035870464046172125 0.60580909252166759 0.57013040781021129 0.59261366724967968 0.57415984392166153 0.57816502451896679 0.58878427743911754 0.59528592228889476 0.57567542791366588
decision_type=2 2 2 2 2 2 2 2 2 2 2 2 2 2
left_child=3 2 8 -1 5 -4 -7 9 11 -5 13 -2 -10 -9
right_child=1 -3 4 7 -6 6 -8 10 12 -11 -12 -13 -14 -15
leaf_value=-6.2633931652685129e-05 -3.4361440356178722e-06 8.4006215478265895e-05 3.9710495970211926e-05 -4.6672523021698003e-05 4.5639040278426063e-05 2.5401732461802941e-05 1.8864066424568938e-06 -2.9467324726283549e-05 8.2786781804315981e-06 -3.3619971933755251e-05 -1.9218759750098494e-05 2.012785429265616e-06 1.277118723237436e-05 -2.6568155209090386e-05
leaf_weight=22 22 21 25 20 21 27 21 25 25 24 24 23 23 21
leaf_count=22 22 21 25 20 21 27 21 25 25 24 24 23 23 21
internal_value=1.10571e-07 2.36162e-05 1.68345e-05 -3.58393e-05 2.84749e-05 2.35373e-05 1.51138e-05 -3.06684e-05 5.06885e-06 -3.95529e-05 -2.50838e-05 -6.51136e-07 1.04313e-05 -2.81438e-05
internal_weight=344 208 187 136 94 73 48 114 93 44 70 45 48 46
internal_count=344 208 187 136 94 73 48 114 93 44 70 45 48 46
is_linear=0
shrinkage=0.05


Tree=64
num_leaves=15
num_cat=0
split_feature=4 15 2 1 20 2 1 2 6 2 4 4 4 4
split_gain=0.000104939 3.13907e-05 9.3761e-06 6.80237e-06 3.33525e-06 2.98586e-06 2.04193e-06 1.17013e-06 6.70944e-07 4.53521e-07 2.82792e-07 1.23145e-07 1.20522e-07 3.46303e-08
threshold=0.58460915088653576 0.61871999502182018 0.59912890195846569 0.55977562069892894 0.62112560713891496 0.60863348841667186 0.57013040781021129 0.59261366724967968 0.57415984392166153 0.57816502451896679 0.60380586981773388 0.59528592228889476 0.58878427743911754 0.57567542791366588
decision_type=2 2 2 2 2 2 2 2 2 2 2 2 2 2
left_child=3 2 7 -1 5 10 8 12 -5 13 -4 -9 -2 -8
right_child=1 -3 4 6 -6 -7 9 11 -10 -11 -12 -13 -14 -15
leaf_value=-5.950223626262579e-05 -3.2643368270286874e-06 8.1988323963742011e-05 2.1729839515198063e-05 -4.4338896695990119e-05 1.0676142656765562e-05 4.7275756272332123e-05 -2.7993958559818568e-05 7.8647442596775366e-06 -3.1938972855035291e-05 -1.8257821936155474e-05 2.9674855856380118e-05 1.2734738154702227e-05 1.9121461392664377e-06 -2.5239747524860185e-05
leaf_weight=22 22 20 24 20 22 24 25 25 24 24 21 27 23 21
leaf_count=22 22 20 24 20 22 24 25 25 24 24 21 27 23 21
internal_value=1.05042e-07 2.24354e-05 1.61e-05 -3.40473e-05 2.76284e-05 3.30334e-05 -2.9135e-05 5.28475e-06 -3.75753e-05 -2.38296e-05 2.54375e-05 1.03934e-05 -6.18579e-07 -2.67366e-05
internal_weight=344 208 188 136 91 69 114 97 44 70 45 52 45 46
internal_count=344 208 188 136 91 69 114 97 44 70 45 52 45 46
is_linear=0
shrinkage=0.05


Tree=65
num_leaves=14
num_cat=0
split_feature=2 11 1 19 7 2 1 2 19 2 0 2 4
split_gain=9.79202e-05 2.8729e-05 1.20983e-05 8.33703e-06 4.3519e-06 4.06985e-06 2.57496e-06 1.28494e-06 6.28176e-07 4.90005e-07 1.94184e-07 3.70495e-08 3.5684e-08
threshold=0.58406952023506176 66.082288087374266 0.56082558631896984 0.0035007410078054251 0.6137694538387215 0.59393885731697094 0.57013040781021129 0.60124519467353832 0.0046954842183235344 0.57770073413848888 0.59213644266128551 0.57469451427459728 0.59725561738014232
decision_type=2 2 2 2 2 2 2 2 2 2 2 2 2
left_child=2 3 -1 -2 5 10 8 12 -4 11 -5 -8 -7
right_child=1 -3 6 4 -6 7 9 -9 -10 -11 -12 -13 -14
leaf_value=-6.9692123698977029e-05 3.5427136091519582e-05 5.7915584833468671e-05 -4.3388084304751831e-05 -3.0405925144805225e-06 -1.602491071935219e-05 1.1147363290112244e-05 -2.7545596756019882e-05 2.7091344173127056e-05 -3.1691137567949313e-05 -1.7785669673079004e-05 2.7371575645072601e-06 -2.4609472824349289e-05 1.3998117412397517e-05
leaf_weight=21 28 39 24 33 20 23 22 23 22 30 26 21 21
leaf_count=21 28 39 24 33 20 23 22 23 22 30 26 21 21
internal_value=-2.2209e-06 1.91289e-05 -3.4703e-05 1.04353e-05 5.64232e-06 9.08157e-06 -2.85285e-05 1.75142e-05 -3.77939e-05 -2.269e-05 -4.94465e-07 -2.61117e-05 1.2508e-05
internal_weight=353 213 140 174 146 126 119 67 46 73 59 43 44
internal_count=353 213 140 174 146 126 119 67 46 73 59 43 44
is_linear=0
shrinkage=0.05


Tree=66
num_leaves=13
num_cat=0
split_feature=0 11 0 10 19 7 0 0 1 12 1 0
split_gain=8.73725e-05 2.51005e-05 1.21647e-05 7.09356e-06 6.84686e-06 3.95447e-06 2.86013e-06 1.66881e-06 9.08038e-07 3.30792e-07 2.77972e-07 1.64824e-07
threshold=0.58814361691474926 66.082288087374266 0.56839010119438182 -0.003498888958723505 0.0036063996713208472 0.6137694538387215 0.59698104858398449 0.57893994450569164 0.59889924526214611 0.58205524086952221 0.57013040781021129 0.59213644266128551
decision_type=2 2 2 2 2 2 2 2 2 2 2 2
left_child=2 4 3 -1 -2 6 11 10 -8 -9 -4 -6
right_child=1 -3 7 -5 5 -7 8 9 -10 -11 -12 -13
leaf_value=-3.4026038324554978e-05 3.013034888551504e-05 5.5019806485198884e-05 -3.194324022982843e-05 -7.6137676296639262e-05 -2.5951997204174407e-06 -1.5223665513985907e-05 1.1671191226157949e-05 -1.9248616642168296e-05 2.4435417055263482e-05 -1.0541928393195121e-05 -2.5197137005601982e-05 3.0389652709817273e-06
leaf_weight=20 35 39 26 20 25 20 38 24 22 20 37 27
leaf_count=20 35 39 26 20 25 20 38 24 22 20 37 27
internal_value=-2.10986e-06 1.89035e-05 -3.15571e-05 -5.50819e-05 1.04691e-05 5.25593e-06 8.913e-06 -2.27628e-05 1.63514e-05 -1.5291e-05 -2.79812e-05 3.30232e-07
internal_weight=353 206 147 40 167 132 112 107 60 44 63 52
internal_count=353 206 147 40 167 132 112 107 60 44 63 52
is_linear=0
shrinkage=0.05


Tree=67
num_leaves=14
num_cat=0
split_feature=2 11 2 19 5 2 4 2 11 2 0 15 2
split_gain=7.9997e-05 2.33612e-05 1.04683e-05 6.87558e-06 3.04063e-06 3.20674e-06 2.24049e-06 1.04017e-06 7.2543e-07 4.35133e-07 1.4514e-07 3.57123e-08 3.53145e-08
threshold=0.58406952023506176 66.082288087374266 0.56277471780776989 0.0035007410078054251 0.6129884570837022 0.59393885731697094 0.57208898663520824 0.60124519467353832 44.886798549372052 0.57770073413848888 0.59213644266128551 0.59877014160156261 0.57469451427459728
decision_type=2 2 2 2 2 2 2 2 2 2 2 2 2
left_child=2 3 -1 -2 5 10 8 11 -4 12 -5 -7 -8
right_child=1 -3 6 4 -6 7 9 -9 -10 -11 -12 -13 -14
leaf_value=-6.4854050039286909e-05 3.2149261720145922e-05 5.2268816575516936e-05 -2.8393227745729509e-05 -2.6131655408703689e-06 -1.2503647303674371e-05 1.2491965471402486e-05 -2.5040077668128779e-05 2.4507066667535005e-05 -4.1093079793923118e-05 -1.5952546146441056e-05 2.3819497108399028e-06 9.6311851848440724e-06 -2.2204121619108179e-05
leaf_weight=20 28 39 23 33 21 24 23 22 22 31 26 20 21
leaf_count=20 28 39 23 33 21 24 23 22 22 31 26 20 21
internal_value=-2.00437e-06 1.72928e-05 -3.13636e-05 9.45336e-06 5.10073e-06 8.05826e-06 -2.57819e-05 1.56301e-05 -3.4602e-05 -2.04898e-05 -4.11928e-07 1.11916e-05 -2.36866e-05
internal_weight=353 213 140 174 146 125 120 66 45 75 59 44 44
internal_count=353 213 140 174 146 125 120 66 45 75 59 44 44
is_linear=0
shrinkage=0.05


Tree=68
num_leaves=15
num_cat=0
split_feature=4 1 1 2 17 1 2 2 10 2 0 8 18 2
split_gain=7.22087e-05 2.21918e-05 9.62215e-06 6.48135e-06 3.29029e-06 1.63504e-06 1.08546e-06 1.06843e-06 6.12039e-07 3.03344e-07 1.15961e-07 9.81916e-08 8.60837e-08 2.69291e-08
threshold=0.58384954929351818 0.61489060521125805 0.56082558631896984 0.60084959864616405 0.0031546927772914861 0.57013040781021129 0.59393885731697094 0.60863348841667186 -0.002576393047228964 0.57770073413848888 0.58924564719200145 0.59809803717294974 0.59297996163368238 0.57469451427459728
decision_type=2 2 2 2 2 2 2 2 2 2 2 2 2 2
left_child=2 3 -1 6 7 8 10 -5 -4 13 -2 -8 -12 -7
right_child=1 -3 5 4 -6 9 11 -9 -10 -11 12 -13 -14 -15
leaf_value=-6.1147327310858852e-05 -3.8533826227649115e-06 6.5133528204612618e-05 -2.625534656885975e-05 2.2451896802522243e-05 6.7318586540447242e-06 -2.3597109777090902e-05 6.6963977843670367e-06 3.6556831910274928e-05 -3.78010807749392e-05 -1.5757469594157964e-05 -1.760124302023769e-06 1.1131461234561777e-05 2.681443330250962e-06 -2.109391553815277e-05
leaf_weight=21 21 21 24 29 24 22 24 25 22 29 20 26 24 21
leaf_count=21 21 21 24 29 24 22 24 25 22 29 20 26 24 21
internal_value=-1.90415e-06 1.63213e-05 -2.99635e-05 1.10101e-05 2.21358e-05 -2.44138e-05 3.46402e-06 2.8982e-05 -3.17772e-05 -1.97094e-05 -7.96444e-07 9.00263e-06 6.62549e-07 -2.23746e-05
internal_weight=353 214 139 193 78 118 115 54 46 72 65 50 44 43
internal_count=353 214 139 193 78 118 115 54 46 72 65 50 44 43
is_linear=0
shrinkage=0.05


Tree=69
num_leaves=14
num_cat=0
split_feature=2 11 2 13 2 4 0 2 11 2 0 16 2
split_gain=6.51965e-05 2.06964e-05 8.54355e-06 3.19739e-06 6.254e-06 1.65343e-06 1.11081e-06 7.84441e-07 6.54518e-07 2.57611e-07 1.05602e-07 6.77166e-08 2.61354e-08
threshold=0.58365023136138927 66.082288087374266 0.56277471780776989 0.61429589986801159 0.60084959864616405 0.57208898663520824 0.59666049480438244 0.60804504156112682 44.886798549372052 0.57770073413848888 0.59213644266128551 0.59693652391433727 0.57469451427459728
decision_type=2 2 2 2 2 2 2 2 2 2 2 2 2
left_child=2 3 -1 4 6 8 10 -6 -4 12 -2 -8 -7
right_child=1 -3 5 -5 7 9 11 -9 -10 -11 -12 -13 -14
leaf_value=-5.8990130278289143e-05 -2.6864612165253573e-06 4.8276106833374148e-05 -2.5248675719131314e-05 -1.0789401258080034e-05 1.9763188902288675e-05 -2.2478926668712953e-05 1.1523010453813533e-05 3.2386165839852767e-05 -3.7311854645271195e-05 -1.5179542203571015e-05 1.5436320809385507e-06 7.5959257549623984e-06 -2.0039219608796496e-05
leaf_weight=20 36 39 23 20 32 23 21 20 22 28 25 23 21
leaf_count=20 36 39 23 20 32 23 21 20 22 28 25 23 21
internal_value=-1.80894e-06 1.53041e-05 -2.87901e-05 8.03912e-06 1.04377e-05 -2.36277e-05 3.41493e-06 2.46182e-05 -3.11462e-05 -1.89287e-05 -9.52816e-07 9.47022e-06 -2.13145e-05
internal_weight=353 216 137 177 157 117 105 52 45 72 61 44 44
internal_count=353 216 137 177 157 117 105 52 45 72 61 44 44
is_linear=0
shrinkage=0.05


Tree=70
num_leaves=13
num_cat=0
split_feature=8 4 4 19 20 2 4 12 0 4 2 15
split_gain=0.000103691 4.70394e-05 2.34544e-05 4.96577e-06 1.69341e-06 3.34672e-06 7.07182e-07 9.50295e-07 6.99936e-07 6.8346e-07 4.70365e-07 1.64521e-07
threshold=0.61248514654142316 0.56250467896461498 0.58384954929351818 0.0035007410078054251 0.62112560713891496 0.59784477949142467 0.57632899284362804 0.56582531332969677 0.60622596740722667 0.57155579328536998 0.59444019198417675 0.59403410553932201
decision_type=2 2 2 2 2 2 2 2 2 2 2 2
left_child=1 -1 6 -4 5 10 7 -3 -7 -9 11 -5
right_child=-2 2 3 4 -6 8 -8 9 -10 -11 -12 -13
leaf_value=-8.1313533150932933e-05 0.00010763405066210822 -1.4475192074314691e-05 2.816832971542941e-05 8.235203698572341e-07 -8.2748993554560007e-06 1.2588590824446423e-05 -1.4750101591313356e-05 -3.3826049184426664e-05 2.4574626634906357e-05 -2.2065124261037759e-05 6.6375888685609523e-06 -4.6909753434322609e-06
leaf_weight=20 21 22 28 38 20 29 38 21 21 30 29 21
leaf_count=20 21 22 28 38 20 29 38 21 21 30 29 21
internal_value=3.67173e-08 -7.09118e-06 -2.09304e-06 8.76142e-06 5.32223e-06 7.29282e-06 -2.02816e-05 -2.3161e-05 1.76227e-05 -2.69079e-05 1.42356e-06 -1.13927e-06
internal_weight=338 317 297 186 158 138 111 73 50 51 88 59
internal_count=338 317 297 186 158 138 111 73 50 51 88 59
is_linear=0
shrinkage=0.05


Tree=71
num_leaves=13
num_cat=0
split_feature=13 1 2 4 20 2 1 11 4 11 10 21
split_gain=9.60803e-05 4.32643e-05 2.11592e-05 3.87939e-06 2.05531e-06 9.46291e-07 7.9493e-07 7.19052e-07 9.5467e-07 3.66867e-07 1.11319e-07 1.06342e-07
threshold=0.61807045340538036 0.55970421433448803 0.58282071352005016 0.60065472126007091 0.62085809362017375 0.60910430550575267 0.59135046601295482 47.214910971686528 0.57266879081726085 38.608321306437112 0.00071706714543770132 0.58300252755873749
decision_type=2 2 2 2 2 2 2 2 2 2 2 2
left_child=1 -1 7 6 5 -5 11 9 -9 -3 -8 -4
right_child=-2 2 3 4 -6 -7 10 8 -10 -11 -12 -13
